<?xml version="1.0" encoding="UTF-8" standalone="yes"?>
<PMML xmlns="http://www.dmg.org/PMML-4_3" xmlns:data="http://jpmml.org/jpmml-model/InlineTable" version="4.3">
	<Header>
		<Application name="JPMML-SkLearn" version="1.5.8"/>
		<Timestamp>2018-11-10T07:53:10Z</Timestamp>
	</Header>
	<MiningBuildTask>
		<Extension>PMMLPipeline(steps=[('classifier', XGBClassifier(base_score=0.5, booster='gbtree', colsample_bylevel=1,
       colsample_bytree=0.8, gamma=0, learning_rate=0.1, max_delta_step=0,
       max_depth=7, min_child_weight=3, missing=None, n_estimators=100,
       n_jobs=1, nthread=40, objective='multi:softprob', random_state=0,
       reg_alpha=0, reg_lambda=1, scale_pos_weight=1, seed=0, silent=True,
       subsample=0.9))])</Extension>
	</MiningBuildTask>
	<DataDictionary>
		<DataField name="y" optype="categorical" dataType="integer">
			<Value value="-1"/>
			<Value value="0"/>
			<Value value="1"/>
		</DataField>
		<DataField name="ask_p_0" optype="continuous" dataType="float"/>
		<DataField name="ask_p_1" optype="continuous" dataType="float"/>
		<DataField name="ask_p_3" optype="continuous" dataType="float"/>
		<DataField name="ask_vol_0" optype="continuous" dataType="float"/>
		<DataField name="ask_vol_1" optype="continuous" dataType="float"/>
		<DataField name="ask_vol_2" optype="continuous" dataType="float"/>
		<DataField name="ask_vol_3" optype="continuous" dataType="float"/>
		<DataField name="ask_vol_4" optype="continuous" dataType="float"/>
		<DataField name="ask_vol_5" optype="continuous" dataType="float"/>
		<DataField name="ask_vol_6" optype="continuous" dataType="float"/>
		<DataField name="ask_vol_7" optype="continuous" dataType="float"/>
		<DataField name="ask_vol_8" optype="continuous" dataType="float"/>
		<DataField name="ask_vol_9" optype="continuous" dataType="float"/>
		<DataField name="bid_vol_0" optype="continuous" dataType="float"/>
		<DataField name="bid_vol_1" optype="continuous" dataType="float"/>
		<DataField name="bid_vol_2" optype="continuous" dataType="float"/>
		<DataField name="bid_vol_3" optype="continuous" dataType="float"/>
		<DataField name="bid_vol_4" optype="continuous" dataType="float"/>
		<DataField name="bid_vol_5" optype="continuous" dataType="float"/>
		<DataField name="bid_vol_6" optype="continuous" dataType="float"/>
		<DataField name="bid_vol_7" optype="continuous" dataType="float"/>
		<DataField name="bid_vol_8" optype="continuous" dataType="float"/>
		<DataField name="bid_vol_9" optype="continuous" dataType="float"/>
		<DataField name="spreed_0" optype="continuous" dataType="float"/>
		<DataField name="spreed_1" optype="continuous" dataType="float"/>
		<DataField name="spreed_2" optype="continuous" dataType="float"/>
		<DataField name="spreed_3" optype="continuous" dataType="float"/>
		<DataField name="spreed_4" optype="continuous" dataType="float"/>
		<DataField name="spreed_5" optype="continuous" dataType="float"/>
		<DataField name="spreed_7" optype="continuous" dataType="float"/>
		<DataField name="spreed_8" optype="continuous" dataType="float"/>
		<DataField name="ask_p_diff_1_0" optype="continuous" dataType="float"/>
		<DataField name="ask_p_diff_2_0" optype="continuous" dataType="float"/>
		<DataField name="ask_p_diff_3_0" optype="continuous" dataType="float"/>
		<DataField name="ask_p_diff_4_0" optype="continuous" dataType="float"/>
		<DataField name="bid_p_diff_4_0" optype="continuous" dataType="float"/>
		<DataField name="ask_p_diff_5_0" optype="continuous" dataType="float"/>
		<DataField name="bid_p_diff_5_0" optype="continuous" dataType="float"/>
		<DataField name="ask_p_diff_6_0" optype="continuous" dataType="float"/>
		<DataField name="bid_p_diff_6_0" optype="continuous" dataType="float"/>
		<DataField name="ask_p_diff_7_0" optype="continuous" dataType="float"/>
		<DataField name="bid_p_diff_7_0" optype="continuous" dataType="float"/>
		<DataField name="ask_p_diff_8_0" optype="continuous" dataType="float"/>
		<DataField name="bid_p_diff_8_0" optype="continuous" dataType="float"/>
		<DataField name="ask_p_diff_9_0" optype="continuous" dataType="float"/>
		<DataField name="ask_vol_mean" optype="continuous" dataType="float"/>
		<DataField name="bid_vol_mean" optype="continuous" dataType="float"/>
		<DataField name="accum_spreed" optype="continuous" dataType="float"/>
		<DataField name="spreed_vol_0" optype="continuous" dataType="float"/>
		<DataField name="vol_rate_0" optype="continuous" dataType="float"/>
		<DataField name="sask_vol_rate_0" optype="continuous" dataType="float"/>
		<DataField name="ask_vol_rate_0" optype="continuous" dataType="float"/>
		<DataField name="spreed_vol_1" optype="continuous" dataType="float"/>
		<DataField name="vol_rate_1" optype="continuous" dataType="float"/>
		<DataField name="sask_vol_rate_1" optype="continuous" dataType="float"/>
		<DataField name="sbid_vol_rate_1" optype="continuous" dataType="float"/>
		<DataField name="spreed_vol_2" optype="continuous" dataType="float"/>
		<DataField name="vol_rate_2" optype="continuous" dataType="float"/>
		<DataField name="sask_vol_rate_2" optype="continuous" dataType="float"/>
		<DataField name="ask_vol_rate_2" optype="continuous" dataType="float"/>
		<DataField name="spreed_vol_3" optype="continuous" dataType="float"/>
		<DataField name="vol_rate_3" optype="continuous" dataType="float"/>
		<DataField name="spreed_vol_4" optype="continuous" dataType="float"/>
		<DataField name="vol_rate_4" optype="continuous" dataType="float"/>
		<DataField name="spreed_vol_5" optype="continuous" dataType="float"/>
		<DataField name="vol_rate_5" optype="continuous" dataType="float"/>
		<DataField name="spreed_vol_6" optype="continuous" dataType="float"/>
		<DataField name="vol_rate_6" optype="continuous" dataType="float"/>
		<DataField name="sask_vol_rate_6" optype="continuous" dataType="float"/>
		<DataField name="sbid_vol_rate_6" optype="continuous" dataType="float"/>
		<DataField name="spreed_vol_7" optype="continuous" dataType="float"/>
		<DataField name="vol_rate_7" optype="continuous" dataType="float"/>
		<DataField name="sask_vol_rate_7" optype="continuous" dataType="float"/>
		<DataField name="sbid_vol_rate_7" optype="continuous" dataType="float"/>
		<DataField name="spreed_vol_8" optype="continuous" dataType="float"/>
		<DataField name="vol_rate_8" optype="continuous" dataType="float"/>
		<DataField name="sask_vol_rate_8" optype="continuous" dataType="float"/>
		<DataField name="spreed_vol_9" optype="continuous" dataType="float"/>
		<DataField name="vol_rate_9" optype="continuous" dataType="float"/>
		<DataField name="sask_vol_rate_9" optype="continuous" dataType="float"/>
		<DataField name="sbid_vol_rate_9" optype="continuous" dataType="float"/>
		<DataField name="accum_spreed_vol" optype="continuous" dataType="float"/>
		<DataField name="ask_p_roll_2_mean" optype="continuous" dataType="float"/>
		<DataField name="ask_v_roll_2_mean" optype="continuous" dataType="float"/>
		<DataField name="bid_v_roll_2_mean" optype="continuous" dataType="float"/>
		<DataField name="ask_p_roll_2_std" optype="continuous" dataType="float"/>
		<DataField name="ask_v_roll_2_std" optype="continuous" dataType="float"/>
		<DataField name="bid_p_roll_2_std" optype="continuous" dataType="float"/>
		<DataField name="bid_v_roll_2_std" optype="continuous" dataType="float"/>
		<DataField name="ask_p_roll_2_var" optype="continuous" dataType="float"/>
		<DataField name="ask_v_roll_2_var" optype="continuous" dataType="float"/>
		<DataField name="bid_p_roll_2_var" optype="continuous" dataType="float"/>
		<DataField name="bid_v_roll_2_var" optype="continuous" dataType="float"/>
		<DataField name="ask_p_roll_3_mean" optype="continuous" dataType="float"/>
		<DataField name="ask_v_roll_3_mean" optype="continuous" dataType="float"/>
		<DataField name="bid_v_roll_3_mean" optype="continuous" dataType="float"/>
		<DataField name="ask_p_roll_3_std" optype="continuous" dataType="float"/>
		<DataField name="ask_v_roll_3_std" optype="continuous" dataType="float"/>
		<DataField name="bid_p_roll_3_std" optype="continuous" dataType="float"/>
		<DataField name="bid_v_roll_3_std" optype="continuous" dataType="float"/>
		<DataField name="ask_p_roll_3_var" optype="continuous" dataType="float"/>
		<DataField name="bid_p_roll_3_var" optype="continuous" dataType="float"/>
		<DataField name="bid_v_roll_3_var" optype="continuous" dataType="float"/>
		<DataField name="ask_p_roll_3_skew" optype="continuous" dataType="float"/>
		<DataField name="ask_v_roll_3_skew" optype="continuous" dataType="float"/>
		<DataField name="bid_p_roll_3_skew" optype="continuous" dataType="float"/>
		<DataField name="bid_v_roll_3_skew" optype="continuous" dataType="float"/>
		<DataField name="ask_v_roll_4_mean" optype="continuous" dataType="float"/>
		<DataField name="bid_v_roll_4_mean" optype="continuous" dataType="float"/>
		<DataField name="ask_p_roll_4_std" optype="continuous" dataType="float"/>
		<DataField name="ask_v_roll_4_std" optype="continuous" dataType="float"/>
		<DataField name="bid_p_roll_4_std" optype="continuous" dataType="float"/>
		<DataField name="bid_v_roll_4_std" optype="continuous" dataType="float"/>
		<DataField name="ask_p_roll_4_var" optype="continuous" dataType="float"/>
		<DataField name="ask_v_roll_4_var" optype="continuous" dataType="float"/>
		<DataField name="bid_p_roll_4_var" optype="continuous" dataType="float"/>
		<DataField name="bid_v_roll_4_var" optype="continuous" dataType="float"/>
		<DataField name="ask_p_roll_4_skew" optype="continuous" dataType="float"/>
		<DataField name="ask_v_roll_4_skew" optype="continuous" dataType="float"/>
		<DataField name="bid_p_roll_4_skew" optype="continuous" dataType="float"/>
		<DataField name="bid_v_roll_4_skew" optype="continuous" dataType="float"/>
		<DataField name="ask_p_roll_4_kurt" optype="continuous" dataType="float"/>
		<DataField name="ask_v_roll_4_kurt" optype="continuous" dataType="float"/>
		<DataField name="bid_p_roll_4_kurt" optype="continuous" dataType="float"/>
		<DataField name="bid_v_roll_4_kurt" optype="continuous" dataType="float"/>
		<DataField name="ask_v_roll_5_mean" optype="continuous" dataType="float"/>
		<DataField name="bid_v_roll_5_mean" optype="continuous" dataType="float"/>
		<DataField name="ask_p_roll_5_std" optype="continuous" dataType="float"/>
		<DataField name="ask_v_roll_5_std" optype="continuous" dataType="float"/>
		<DataField name="bid_p_roll_5_std" optype="continuous" dataType="float"/>
		<DataField name="bid_v_roll_5_std" optype="continuous" dataType="float"/>
		<DataField name="ask_p_roll_5_var" optype="continuous" dataType="float"/>
		<DataField name="ask_v_roll_5_var" optype="continuous" dataType="float"/>
		<DataField name="bid_p_roll_5_var" optype="continuous" dataType="float"/>
		<DataField name="ask_p_roll_5_skew" optype="continuous" dataType="float"/>
		<DataField name="ask_v_roll_5_skew" optype="continuous" dataType="float"/>
		<DataField name="bid_p_roll_5_skew" optype="continuous" dataType="float"/>
		<DataField name="bid_v_roll_5_skew" optype="continuous" dataType="float"/>
		<DataField name="ask_p_roll_5_kurt" optype="continuous" dataType="float"/>
		<DataField name="ask_v_roll_5_kurt" optype="continuous" dataType="float"/>
		<DataField name="bid_p_roll_5_kurt" optype="continuous" dataType="float"/>
		<DataField name="bid_v_roll_5_kurt" optype="continuous" dataType="float"/>
		<DataField name="ask_p_roll_6_mean" optype="continuous" dataType="float"/>
		<DataField name="ask_v_roll_6_mean" optype="continuous" dataType="float"/>
		<DataField name="bid_v_roll_6_mean" optype="continuous" dataType="float"/>
		<DataField name="ask_p_roll_6_std" optype="continuous" dataType="float"/>
		<DataField name="ask_v_roll_6_std" optype="continuous" dataType="float"/>
		<DataField name="bid_p_roll_6_std" optype="continuous" dataType="float"/>
		<DataField name="bid_v_roll_6_std" optype="continuous" dataType="float"/>
		<DataField name="ask_p_roll_6_var" optype="continuous" dataType="float"/>
		<DataField name="ask_v_roll_6_var" optype="continuous" dataType="float"/>
		<DataField name="bid_v_roll_6_var" optype="continuous" dataType="float"/>
		<DataField name="ask_p_roll_6_skew" optype="continuous" dataType="float"/>
		<DataField name="ask_v_roll_6_skew" optype="continuous" dataType="float"/>
		<DataField name="bid_p_roll_6_skew" optype="continuous" dataType="float"/>
		<DataField name="bid_v_roll_6_skew" optype="continuous" dataType="float"/>
		<DataField name="ask_p_roll_6_kurt" optype="continuous" dataType="float"/>
		<DataField name="ask_v_roll_6_kurt" optype="continuous" dataType="float"/>
		<DataField name="bid_v_roll_6_kurt" optype="continuous" dataType="float"/>
		<DataField name="ask_v_roll_7_mean" optype="continuous" dataType="float"/>
		<DataField name="bid_v_roll_7_mean" optype="continuous" dataType="float"/>
		<DataField name="ask_p_roll_7_std" optype="continuous" dataType="float"/>
		<DataField name="ask_v_roll_7_std" optype="continuous" dataType="float"/>
		<DataField name="bid_p_roll_7_std" optype="continuous" dataType="float"/>
		<DataField name="bid_v_roll_7_std" optype="continuous" dataType="float"/>
		<DataField name="ask_p_roll_7_var" optype="continuous" dataType="float"/>
		<DataField name="ask_v_roll_7_var" optype="continuous" dataType="float"/>
		<DataField name="bid_v_roll_7_var" optype="continuous" dataType="float"/>
		<DataField name="ask_p_roll_7_skew" optype="continuous" dataType="float"/>
		<DataField name="ask_v_roll_7_skew" optype="continuous" dataType="float"/>
		<DataField name="bid_p_roll_7_skew" optype="continuous" dataType="float"/>
		<DataField name="bid_v_roll_7_skew" optype="continuous" dataType="float"/>
		<DataField name="ask_p_roll_7_kurt" optype="continuous" dataType="float"/>
		<DataField name="ask_v_roll_7_kurt" optype="continuous" dataType="float"/>
		<DataField name="bid_p_roll_7_kurt" optype="continuous" dataType="float"/>
		<DataField name="bid_v_roll_7_kurt" optype="continuous" dataType="float"/>
		<DataField name="ask_p_roll_8_mean" optype="continuous" dataType="float"/>
		<DataField name="ask_v_roll_8_mean" optype="continuous" dataType="float"/>
		<DataField name="bid_v_roll_8_mean" optype="continuous" dataType="float"/>
		<DataField name="ask_p_roll_8_std" optype="continuous" dataType="float"/>
		<DataField name="ask_v_roll_8_std" optype="continuous" dataType="float"/>
		<DataField name="bid_p_roll_8_std" optype="continuous" dataType="float"/>
		<DataField name="bid_v_roll_8_std" optype="continuous" dataType="float"/>
		<DataField name="ask_p_roll_8_var" optype="continuous" dataType="float"/>
		<DataField name="ask_v_roll_8_var" optype="continuous" dataType="float"/>
		<DataField name="bid_v_roll_8_var" optype="continuous" dataType="float"/>
		<DataField name="ask_p_roll_8_skew" optype="continuous" dataType="float"/>
		<DataField name="ask_v_roll_8_skew" optype="continuous" dataType="float"/>
		<DataField name="bid_p_roll_8_skew" optype="continuous" dataType="float"/>
		<DataField name="bid_v_roll_8_skew" optype="continuous" dataType="float"/>
		<DataField name="ask_p_roll_8_kurt" optype="continuous" dataType="float"/>
		<DataField name="ask_v_roll_8_kurt" optype="continuous" dataType="float"/>
		<DataField name="bid_p_roll_8_kurt" optype="continuous" dataType="float"/>
		<DataField name="bid_v_roll_8_kurt" optype="continuous" dataType="float"/>
		<DataField name="ask_p_roll_9_mean" optype="continuous" dataType="float"/>
		<DataField name="ask_v_roll_9_mean" optype="continuous" dataType="float"/>
		<DataField name="bid_v_roll_9_mean" optype="continuous" dataType="float"/>
		<DataField name="ask_p_roll_9_std" optype="continuous" dataType="float"/>
		<DataField name="ask_v_roll_9_std" optype="continuous" dataType="float"/>
		<DataField name="bid_p_roll_9_std" optype="continuous" dataType="float"/>
		<DataField name="bid_v_roll_9_std" optype="continuous" dataType="float"/>
		<DataField name="ask_p_roll_9_var" optype="continuous" dataType="float"/>
		<DataField name="ask_v_roll_9_var" optype="continuous" dataType="float"/>
		<DataField name="bid_p_roll_9_var" optype="continuous" dataType="float"/>
		<DataField name="ask_p_roll_9_skew" optype="continuous" dataType="float"/>
		<DataField name="ask_v_roll_9_skew" optype="continuous" dataType="float"/>
		<DataField name="bid_p_roll_9_skew" optype="continuous" dataType="float"/>
		<DataField name="bid_v_roll_9_skew" optype="continuous" dataType="float"/>
		<DataField name="ask_p_roll_9_kurt" optype="continuous" dataType="float"/>
		<DataField name="ask_v_roll_9_kurt" optype="continuous" dataType="float"/>
		<DataField name="bid_p_roll_9_kurt" optype="continuous" dataType="float"/>
		<DataField name="bid_v_roll_9_kurt" optype="continuous" dataType="float"/>
	</DataDictionary>
	<MiningModel functionName="classification" algorithmName="XGBoost" x-mathContext="float">
		<MiningSchema>
			<MiningField name="y" usageType="target"/>
			<MiningField name="bid_p_roll_3_skew"/>
			<MiningField name="bid_v_roll_7_std"/>
			<MiningField name="bid_v_roll_7_var"/>
			<MiningField name="spreed_vol_0"/>
			<MiningField name="spreed_vol_1"/>
			<MiningField name="ask_p_roll_6_std"/>
			<MiningField name="bid_p_roll_2_std"/>
			<MiningField name="ask_v_roll_7_std"/>
			<MiningField name="bid_v_roll_2_var"/>
			<MiningField name="bid_v_roll_9_std"/>
			<MiningField name="spreed_0"/>
			<MiningField name="vol_rate_8"/>
			<MiningField name="bid_v_roll_5_kurt"/>
			<MiningField name="bid_p_roll_4_skew"/>
			<MiningField name="spreed_vol_5"/>
			<MiningField name="bid_v_roll_8_kurt"/>
			<MiningField name="ask_v_roll_4_skew"/>
			<MiningField name="spreed_vol_4"/>
			<MiningField name="ask_p_roll_3_skew"/>
			<MiningField name="bid_p_roll_4_var"/>
			<MiningField name="ask_vol_mean"/>
			<MiningField name="accum_spreed_vol"/>
			<MiningField name="ask_v_roll_5_std"/>
			<MiningField name="bid_p_roll_5_std"/>
			<MiningField name="ask_p_diff_7_0"/>
			<MiningField name="ask_v_roll_5_skew"/>
			<MiningField name="sask_vol_rate_1"/>
			<MiningField name="ask_v_roll_4_mean"/>
			<MiningField name="ask_vol_3"/>
			<MiningField name="ask_vol_9"/>
			<MiningField name="ask_p_roll_8_std"/>
			<MiningField name="bid_p_roll_6_std"/>
			<MiningField name="spreed_vol_3"/>
			<MiningField name="ask_v_roll_5_kurt"/>
			<MiningField name="vol_rate_2"/>
			<MiningField name="bid_v_roll_6_kurt"/>
			<MiningField name="ask_p_3"/>
			<MiningField name="ask_p_diff_4_0"/>
			<MiningField name="ask_v_roll_9_mean"/>
			<MiningField name="ask_v_roll_5_var"/>
			<MiningField name="sask_vol_rate_6"/>
			<MiningField name="ask_vol_rate_2"/>
			<MiningField name="bid_v_roll_4_var"/>
			<MiningField name="spreed_vol_2"/>
			<MiningField name="bid_p_roll_7_skew"/>
			<MiningField name="bid_v_roll_5_mean"/>
			<MiningField name="ask_p_roll_7_std"/>
			<MiningField name="ask_v_roll_7_mean"/>
			<MiningField name="bid_v_roll_9_kurt"/>
			<MiningField name="ask_p_roll_8_skew"/>
			<MiningField name="ask_v_roll_9_skew"/>
			<MiningField name="vol_rate_9"/>
			<MiningField name="ask_vol_2"/>
			<MiningField name="spreed_2"/>
			<MiningField name="vol_rate_0"/>
			<MiningField name="ask_v_roll_8_mean"/>
			<MiningField name="ask_p_roll_5_var"/>
			<MiningField name="bid_v_roll_6_mean"/>
			<MiningField name="ask_v_roll_8_std"/>
			<MiningField name="ask_p_roll_5_std"/>
			<MiningField name="ask_v_roll_6_skew"/>
			<MiningField name="bid_p_roll_9_skew"/>
			<MiningField name="ask_v_roll_9_kurt"/>
			<MiningField name="bid_v_roll_4_mean"/>
			<MiningField name="ask_p_diff_8_0"/>
			<MiningField name="bid_p_roll_5_kurt"/>
			<MiningField name="bid_p_roll_3_var"/>
			<MiningField name="bid_v_roll_8_var"/>
			<MiningField name="bid_p_roll_7_std"/>
			<MiningField name="accum_spreed"/>
			<MiningField name="ask_p_roll_3_var"/>
			<MiningField name="bid_v_roll_4_std"/>
			<MiningField name="ask_v_roll_7_skew"/>
			<MiningField name="ask_p_diff_1_0"/>
			<MiningField name="bid_vol_7"/>
			<MiningField name="bid_vol_8"/>
			<MiningField name="ask_v_roll_3_std"/>
			<MiningField name="bid_p_diff_6_0"/>
			<MiningField name="bid_v_roll_9_mean"/>
			<MiningField name="bid_vol_1"/>
			<MiningField name="ask_p_diff_3_0"/>
			<MiningField name="bid_v_roll_3_skew"/>
			<MiningField name="bid_p_roll_9_std"/>
			<MiningField name="bid_p_roll_3_std"/>
			<MiningField name="ask_p_roll_8_var"/>
			<MiningField name="sask_vol_rate_9"/>
			<MiningField name="bid_vol_2"/>
			<MiningField name="bid_v_roll_3_var"/>
			<MiningField name="ask_p_roll_6_skew"/>
			<MiningField name="ask_p_roll_4_var"/>
			<MiningField name="bid_p_roll_8_skew"/>
			<MiningField name="bid_vol_6"/>
			<MiningField name="bid_v_roll_2_std"/>
			<MiningField name="bid_vol_9"/>
			<MiningField name="ask_v_roll_2_var"/>
			<MiningField name="sask_vol_rate_2"/>
			<MiningField name="ask_v_roll_6_var"/>
			<MiningField name="ask_v_roll_4_kurt"/>
			<MiningField name="bid_p_roll_7_kurt"/>
			<MiningField name="ask_p_roll_8_kurt"/>
			<MiningField name="ask_p_roll_3_mean"/>
			<MiningField name="ask_v_roll_2_std"/>
			<MiningField name="ask_p_0"/>
			<MiningField name="bid_v_roll_5_skew"/>
			<MiningField name="bid_v_roll_7_skew"/>
			<MiningField name="bid_p_roll_6_skew"/>
			<MiningField name="vol_rate_1"/>
			<MiningField name="vol_rate_4"/>
			<MiningField name="bid_v_roll_6_var"/>
			<MiningField name="vol_rate_6"/>
			<MiningField name="ask_v_roll_8_var"/>
			<MiningField name="spreed_vol_8"/>
			<MiningField name="bid_p_roll_4_kurt"/>
			<MiningField name="ask_v_roll_6_std"/>
			<MiningField name="ask_vol_5"/>
			<MiningField name="ask_p_roll_9_skew"/>
			<MiningField name="sbid_vol_rate_9"/>
			<MiningField name="ask_v_roll_6_mean"/>
			<MiningField name="ask_v_roll_9_std"/>
			<MiningField name="ask_vol_7"/>
			<MiningField name="bid_v_roll_6_std"/>
			<MiningField name="ask_v_roll_2_mean"/>
			<MiningField name="ask_p_roll_2_std"/>
			<MiningField name="bid_v_roll_3_mean"/>
			<MiningField name="ask_p_roll_4_std"/>
			<MiningField name="ask_vol_rate_0"/>
			<MiningField name="bid_p_roll_5_var"/>
			<MiningField name="ask_vol_4"/>
			<MiningField name="bid_v_roll_5_std"/>
			<MiningField name="bid_p_roll_9_var"/>
			<MiningField name="spreed_8"/>
			<MiningField name="ask_p_roll_6_mean"/>
			<MiningField name="ask_v_roll_7_var"/>
			<MiningField name="ask_p_roll_3_std"/>
			<MiningField name="ask_v_roll_5_mean"/>
			<MiningField name="ask_p_roll_9_kurt"/>
			<MiningField name="ask_v_roll_3_skew"/>
			<MiningField name="spreed_vol_7"/>
			<MiningField name="spreed_vol_9"/>
			<MiningField name="ask_p_roll_7_var"/>
			<MiningField name="bid_v_roll_4_kurt"/>
			<MiningField name="ask_p_roll_2_mean"/>
			<MiningField name="spreed_5"/>
			<MiningField name="bid_v_roll_4_skew"/>
			<MiningField name="spreed_3"/>
			<MiningField name="bid_vol_mean"/>
			<MiningField name="sask_vol_rate_8"/>
			<MiningField name="spreed_1"/>
			<MiningField name="ask_vol_8"/>
			<MiningField name="ask_p_roll_7_kurt"/>
			<MiningField name="ask_v_roll_7_kurt"/>
			<MiningField name="ask_p_roll_4_kurt"/>
			<MiningField name="bid_vol_0"/>
			<MiningField name="ask_p_diff_2_0"/>
			<MiningField name="bid_p_diff_5_0"/>
			<MiningField name="bid_v_roll_3_std"/>
			<MiningField name="bid_v_roll_8_std"/>
			<MiningField name="spreed_7"/>
			<MiningField name="sbid_vol_rate_7"/>
			<MiningField name="sask_vol_rate_0"/>
			<MiningField name="bid_vol_5"/>
			<MiningField name="vol_rate_7"/>
			<MiningField name="vol_rate_3"/>
			<MiningField name="bid_p_diff_7_0"/>
			<MiningField name="bid_p_roll_4_std"/>
			<MiningField name="ask_p_roll_9_var"/>
			<MiningField name="ask_v_roll_6_kurt"/>
			<MiningField name="sbid_vol_rate_6"/>
			<MiningField name="bid_p_diff_4_0"/>
			<MiningField name="ask_p_roll_5_kurt"/>
			<MiningField name="ask_p_roll_2_var"/>
			<MiningField name="bid_p_roll_8_kurt"/>
			<MiningField name="ask_p_diff_5_0"/>
			<MiningField name="ask_p_roll_6_var"/>
			<MiningField name="ask_v_roll_9_var"/>
			<MiningField name="ask_p_roll_6_kurt"/>
			<MiningField name="bid_p_roll_2_var"/>
			<MiningField name="ask_p_roll_4_skew"/>
			<MiningField name="ask_v_roll_3_mean"/>
			<MiningField name="ask_p_roll_8_mean"/>
			<MiningField name="ask_v_roll_8_kurt"/>
			<MiningField name="ask_vol_1"/>
			<MiningField name="sbid_vol_rate_1"/>
			<MiningField name="bid_v_roll_6_skew"/>
			<MiningField name="sask_vol_rate_7"/>
			<MiningField name="ask_p_roll_7_skew"/>
			<MiningField name="bid_v_roll_2_mean"/>
			<MiningField name="ask_p_diff_9_0"/>
			<MiningField name="bid_v_roll_8_skew"/>
			<MiningField name="ask_p_diff_6_0"/>
			<MiningField name="ask_v_roll_4_std"/>
			<MiningField name="bid_p_roll_5_skew"/>
			<MiningField name="bid_p_roll_9_kurt"/>
			<MiningField name="spreed_4"/>
			<MiningField name="bid_v_roll_8_mean"/>
			<MiningField name="ask_p_roll_9_std"/>
			<MiningField name="ask_p_1"/>
			<MiningField name="ask_vol_0"/>
			<MiningField name="ask_vol_6"/>
			<MiningField name="ask_p_roll_9_mean"/>
			<MiningField name="ask_v_roll_4_var"/>
			<MiningField name="ask_p_roll_5_skew"/>
			<MiningField name="bid_vol_3"/>
			<MiningField name="bid_v_roll_7_kurt"/>
			<MiningField name="ask_v_roll_8_skew"/>
			<MiningField name="bid_v_roll_9_skew"/>
			<MiningField name="spreed_vol_6"/>
			<MiningField name="bid_p_diff_8_0"/>
			<MiningField name="bid_p_roll_8_std"/>
			<MiningField name="bid_vol_4"/>
			<MiningField name="vol_rate_5"/>
			<MiningField name="bid_v_roll_7_mean"/>
		</MiningSchema>
		<Segmentation multipleModelMethod="modelChain">
			<Segment id="1">
				<True/>
				<MiningModel functionName="regression" x-mathContext="float">
					<MiningSchema>
						<MiningField name="spreed_vol_8"/>
						<MiningField name="bid_p_roll_3_skew"/>
						<MiningField name="bid_v_roll_7_std"/>
						<MiningField name="bid_p_roll_4_kurt"/>
						<MiningField name="spreed_vol_0"/>
						<MiningField name="ask_v_roll_6_std"/>
						<MiningField name="ask_vol_5"/>
						<MiningField name="spreed_vol_1"/>
						<MiningField name="ask_p_roll_9_skew"/>
						<MiningField name="sbid_vol_rate_9"/>
						<MiningField name="ask_v_roll_6_mean"/>
						<MiningField name="ask_v_roll_9_std"/>
						<MiningField name="ask_vol_7"/>
						<MiningField name="bid_v_roll_6_std"/>
						<MiningField name="ask_v_roll_2_mean"/>
						<MiningField name="ask_p_roll_2_std"/>
						<MiningField name="bid_v_roll_3_mean"/>
						<MiningField name="ask_p_roll_4_std"/>
						<MiningField name="ask_p_roll_6_std"/>
						<MiningField name="bid_p_roll_2_std"/>
						<MiningField name="bid_p_roll_5_var"/>
						<MiningField name="ask_vol_4"/>
						<MiningField name="bid_v_roll_5_std"/>
						<MiningField name="ask_v_roll_7_std"/>
						<MiningField name="bid_p_roll_9_var"/>
						<MiningField name="spreed_8"/>
						<MiningField name="bid_v_roll_9_std"/>
						<MiningField name="ask_p_roll_6_mean"/>
						<MiningField name="ask_p_roll_3_std"/>
						<MiningField name="spreed_0"/>
						<MiningField name="vol_rate_8"/>
						<MiningField name="ask_v_roll_5_mean"/>
						<MiningField name="bid_v_roll_5_kurt"/>
						<MiningField name="bid_p_roll_4_skew"/>
						<MiningField name="ask_p_roll_9_kurt"/>
						<MiningField name="spreed_vol_5"/>
						<MiningField name="ask_v_roll_3_skew"/>
						<MiningField name="bid_v_roll_8_kurt"/>
						<MiningField name="ask_v_roll_4_skew"/>
						<MiningField name="spreed_vol_4"/>
						<MiningField name="spreed_vol_7"/>
						<MiningField name="spreed_vol_9"/>
						<MiningField name="ask_p_roll_3_skew"/>
						<MiningField name="bid_p_roll_4_var"/>
						<MiningField name="ask_vol_mean"/>
						<MiningField name="accum_spreed_vol"/>
						<MiningField name="bid_v_roll_4_kurt"/>
						<MiningField name="ask_p_roll_2_mean"/>
						<MiningField name="spreed_5"/>
						<MiningField name="ask_v_roll_5_std"/>
						<MiningField name="bid_v_roll_4_skew"/>
						<MiningField name="bid_p_roll_5_std"/>
						<MiningField name="ask_p_diff_7_0"/>
						<MiningField name="spreed_3"/>
						<MiningField name="bid_vol_mean"/>
						<MiningField name="ask_v_roll_5_skew"/>
						<MiningField name="sask_vol_rate_1"/>
						<MiningField name="ask_v_roll_4_mean"/>
						<MiningField name="ask_vol_3"/>
						<MiningField name="ask_vol_9"/>
						<MiningField name="ask_p_roll_8_std"/>
						<MiningField name="sask_vol_rate_8"/>
						<MiningField name="spreed_1"/>
						<MiningField name="ask_vol_8"/>
						<MiningField name="bid_p_roll_6_std"/>
						<MiningField name="spreed_vol_3"/>
						<MiningField name="ask_p_roll_7_kurt"/>
						<MiningField name="ask_v_roll_5_kurt"/>
						<MiningField name="ask_v_roll_7_kurt"/>
						<MiningField name="vol_rate_2"/>
						<MiningField name="ask_p_roll_4_kurt"/>
						<MiningField name="bid_vol_0"/>
						<MiningField name="ask_p_diff_2_0"/>
						<MiningField name="bid_v_roll_6_kurt"/>
						<MiningField name="bid_p_diff_5_0"/>
						<MiningField name="bid_v_roll_3_std"/>
						<MiningField name="ask_v_roll_9_mean"/>
						<MiningField name="bid_v_roll_8_std"/>
						<MiningField name="sask_vol_rate_6"/>
						<MiningField name="ask_vol_rate_2"/>
						<MiningField name="sask_vol_rate_0"/>
						<MiningField name="bid_vol_5"/>
						<MiningField name="vol_rate_7"/>
						<MiningField name="vol_rate_3"/>
						<MiningField name="bid_v_roll_4_var"/>
						<MiningField name="bid_p_diff_7_0"/>
						<MiningField name="spreed_vol_2"/>
						<MiningField name="bid_p_roll_4_std"/>
						<MiningField name="ask_v_roll_6_kurt"/>
						<MiningField name="bid_p_roll_7_skew"/>
						<MiningField name="bid_v_roll_5_mean"/>
						<MiningField name="sbid_vol_rate_6"/>
						<MiningField name="ask_v_roll_7_mean"/>
						<MiningField name="ask_p_roll_5_kurt"/>
						<MiningField name="bid_v_roll_9_kurt"/>
						<MiningField name="ask_p_roll_2_var"/>
						<MiningField name="ask_p_roll_8_skew"/>
						<MiningField name="ask_v_roll_9_skew"/>
						<MiningField name="vol_rate_9"/>
						<MiningField name="bid_p_roll_8_kurt"/>
						<MiningField name="ask_vol_2"/>
						<MiningField name="spreed_2"/>
						<MiningField name="ask_p_diff_5_0"/>
						<MiningField name="vol_rate_0"/>
						<MiningField name="ask_v_roll_8_mean"/>
						<MiningField name="bid_v_roll_6_mean"/>
						<MiningField name="ask_p_roll_6_var"/>
						<MiningField name="ask_v_roll_8_std"/>
						<MiningField name="ask_p_roll_5_std"/>
						<MiningField name="ask_v_roll_6_skew"/>
						<MiningField name="ask_p_roll_6_kurt"/>
						<MiningField name="bid_p_roll_2_var"/>
						<MiningField name="bid_p_roll_9_skew"/>
						<MiningField name="ask_v_roll_9_kurt"/>
						<MiningField name="bid_v_roll_4_mean"/>
						<MiningField name="ask_p_diff_8_0"/>
						<MiningField name="bid_p_roll_5_kurt"/>
						<MiningField name="ask_p_roll_4_skew"/>
						<MiningField name="ask_v_roll_3_mean"/>
						<MiningField name="ask_p_roll_8_mean"/>
						<MiningField name="ask_v_roll_8_kurt"/>
						<MiningField name="ask_vol_1"/>
						<MiningField name="bid_v_roll_8_var"/>
						<MiningField name="sbid_vol_rate_1"/>
						<MiningField name="bid_v_roll_6_skew"/>
						<MiningField name="sask_vol_rate_7"/>
						<MiningField name="bid_p_roll_7_std"/>
						<MiningField name="accum_spreed"/>
						<MiningField name="ask_p_roll_7_skew"/>
						<MiningField name="bid_v_roll_2_mean"/>
						<MiningField name="bid_v_roll_4_std"/>
						<MiningField name="ask_v_roll_7_skew"/>
						<MiningField name="bid_vol_7"/>
						<MiningField name="bid_vol_8"/>
						<MiningField name="ask_v_roll_3_std"/>
						<MiningField name="bid_p_diff_6_0"/>
						<MiningField name="ask_p_diff_6_0"/>
						<MiningField name="ask_v_roll_4_std"/>
						<MiningField name="bid_v_roll_9_mean"/>
						<MiningField name="bid_p_roll_5_skew"/>
						<MiningField name="bid_vol_1"/>
						<MiningField name="bid_v_roll_3_skew"/>
						<MiningField name="bid_p_roll_9_std"/>
						<MiningField name="bid_p_roll_3_std"/>
						<MiningField name="bid_p_roll_9_kurt"/>
						<MiningField name="spreed_4"/>
						<MiningField name="sask_vol_rate_9"/>
						<MiningField name="bid_v_roll_8_mean"/>
						<MiningField name="bid_vol_2"/>
						<MiningField name="ask_p_roll_9_std"/>
						<MiningField name="ask_p_1"/>
						<MiningField name="ask_vol_0"/>
						<MiningField name="ask_vol_6"/>
						<MiningField name="ask_p_roll_9_mean"/>
						<MiningField name="ask_p_roll_6_skew"/>
						<MiningField name="ask_p_roll_4_var"/>
						<MiningField name="bid_p_roll_8_skew"/>
						<MiningField name="bid_vol_6"/>
						<MiningField name="bid_v_roll_2_std"/>
						<MiningField name="bid_vol_9"/>
						<MiningField name="ask_p_roll_5_skew"/>
						<MiningField name="ask_v_roll_6_var"/>
						<MiningField name="ask_v_roll_4_kurt"/>
						<MiningField name="bid_p_roll_7_kurt"/>
						<MiningField name="bid_v_roll_7_kurt"/>
						<MiningField name="ask_p_roll_8_kurt"/>
						<MiningField name="bid_v_roll_9_skew"/>
						<MiningField name="ask_p_roll_3_mean"/>
						<MiningField name="ask_v_roll_2_std"/>
						<MiningField name="spreed_vol_6"/>
						<MiningField name="bid_v_roll_5_skew"/>
						<MiningField name="bid_p_diff_8_0"/>
						<MiningField name="bid_v_roll_7_skew"/>
						<MiningField name="bid_p_roll_6_skew"/>
						<MiningField name="vol_rate_1"/>
						<MiningField name="bid_vol_4"/>
						<MiningField name="vol_rate_5"/>
						<MiningField name="vol_rate_4"/>
						<MiningField name="bid_v_roll_6_var"/>
						<MiningField name="vol_rate_6"/>
						<MiningField name="bid_v_roll_7_mean"/>
					</MiningSchema>
					<Output>
						<OutputField name="xgbValue(-1)" optype="continuous" dataType="float" feature="predictedValue" isFinalResult="false"/>
					</Output>
					<Targets>
						<Target rescaleConstant="0.5"/>
					</Targets>
					<Segmentation multipleModelMethod="sum">
						<Segment id="1">
							<True/>
							<TreeModel functionName="regression" missingValueStrategy="none" noTrueChildStrategy="returnLastPrediction" splitCharacteristic="multiSplit" x-mathContext="float">
								<MiningSchema>
									<MiningField name="ask_p_1"/>
									<MiningField name="ask_vol_2"/>
									<MiningField name="spreed_0"/>
									<MiningField name="spreed_2"/>
									<MiningField name="ask_p_diff_6_0"/>
									<MiningField name="spreed_vol_0"/>
									<MiningField name="vol_rate_5"/>
									<MiningField name="ask_p_roll_2_std"/>
									<MiningField name="ask_v_roll_3_mean"/>
									<MiningField name="bid_v_roll_3_mean"/>
									<MiningField name="ask_p_roll_3_skew"/>
									<MiningField name="bid_p_roll_4_std"/>
									<MiningField name="ask_p_roll_5_skew"/>
									<MiningField name="ask_v_roll_6_mean"/>
									<MiningField name="ask_v_roll_6_std"/>
									<MiningField name="bid_v_roll_6_var"/>
									<MiningField name="ask_p_roll_8_std"/>
									<MiningField name="bid_p_roll_9_skew"/>
								</MiningSchema>
								<Node score="-0.074997775">
									<True/>
									<Node score="-0.011320759">
										<SimplePredicate field="ask_p_roll_2_std" operator="greaterOrEqual" value="0.17677669"/>
										<Node score="0.06486487">
											<SimplePredicate field="bid_v_roll_3_mean" operator="lessThan" value="864891.9"/>
											<Node score="0.016216213">
												<SimplePredicate field="ask_v_roll_6_mean" operator="lessThan" value="849060.4"/>
												<Node score="-0.042857148">
													<SimplePredicate field="bid_p_roll_9_skew" operator="lessThan" value="-0.030991841"/>
													<Node score="-0.060000002">
														<SimplePredicate field="bid_p_roll_4_std" operator="lessThan" value="0.6977486"/>
														<Node score="-0.008108112">
															<SimplePredicate field="ask_p_1" operator="greaterOrEqual" value="6427.75"/>
														</Node>
													</Node>
													<Node score="0.14300518">
														<SimplePredicate field="ask_p_roll_5_skew" operator="lessThan" value="-2.1501512E-5"/>
														<Node score="0.016216213">
															<SimplePredicate field="vol_rate_5" operator="greaterOrEqual" value="85.425766"/>
														</Node>
													</Node>
													<Node score="0.07777777">
														<SimplePredicate field="bid_v_roll_3_mean" operator="lessThan" value="205532.67"/>
													</Node>
												</Node>
												<Node score="0.12">
													<SimplePredicate field="bid_v_roll_6_var" operator="lessThan" value="4.1231507E10"/>
													<Node score="-0.020000003">
														<SimplePredicate field="ask_v_roll_6_std" operator="lessThan" value="178416.61"/>
													</Node>
												</Node>
												<Node score="0.03962264">
													<SimplePredicate field="ask_p_diff_6_0" operator="greaterOrEqual" value="3.25"/>
												</Node>
												<Node score="-0.069722824">
													<SimplePredicate field="ask_v_roll_3_mean" operator="lessThan" value="947603.9"/>
												</Node>
											</Node>
											<Node score="-0.008108112">
												<SimplePredicate field="spreed_2" operator="greaterOrEqual" value="5.25"/>
											</Node>
											<Node score="0.149173">
												<SimplePredicate field="ask_p_roll_3_skew" operator="lessThan" value="1.6523255"/>
											</Node>
										</Node>
										<Node score="0.14354067">
											<SimplePredicate field="ask_p_roll_3_skew" operator="lessThan" value="-1.6378986"/>
										</Node>
										<Node score="0.029268289">
											<SimplePredicate field="spreed_vol_0" operator="greaterOrEqual" value="1372629.5"/>
										</Node>
										<Node score="-0.07483653">
											<SimplePredicate field="ask_p_roll_8_std" operator="lessThan" value="3.3693695"/>
											<Node score="-0.062264156">
												<SimplePredicate field="bid_p_roll_9_skew" operator="lessThan" value="-1.334996"/>
												<Node score="-0.008108112">
													<SimplePredicate field="ask_vol_2" operator="greaterOrEqual" value="290876.0"/>
												</Node>
											</Node>
										</Node>
									</Node>
									<Node score="0.09473684">
										<SimplePredicate field="spreed_0" operator="greaterOrEqual" value="0.75"/>
									</Node>
								</Node>
							</TreeModel>
						</Segment>
						<Segment id="2">
							<True/>
							<TreeModel functionName="regression" missingValueStrategy="none" noTrueChildStrategy="returnLastPrediction" splitCharacteristic="multiSplit" x-mathContext="float">
								<MiningSchema>
									<MiningField name="ask_vol_2"/>
									<MiningField name="ask_p_diff_6_0"/>
									<MiningField name="bid_vol_mean"/>
									<MiningField name="spreed_vol_0"/>
									<MiningField name="ask_p_roll_2_std"/>
									<MiningField name="ask_p_roll_3_skew"/>
									<MiningField name="bid_p_roll_3_skew"/>
									<MiningField name="ask_p_roll_4_std"/>
									<MiningField name="bid_p_roll_4_skew"/>
									<MiningField name="ask_v_roll_5_mean"/>
									<MiningField name="bid_p_roll_5_skew"/>
									<MiningField name="bid_v_roll_6_mean"/>
									<MiningField name="bid_p_roll_6_skew"/>
									<MiningField name="bid_v_roll_7_std"/>
									<MiningField name="ask_p_roll_7_kurt"/>
									<MiningField name="bid_v_roll_8_mean"/>
									<MiningField name="bid_v_roll_8_std"/>
									<MiningField name="bid_v_roll_8_kurt"/>
									<MiningField name="ask_v_roll_9_std"/>
									<MiningField name="bid_p_roll_9_skew"/>
								</MiningSchema>
								<Node score="-0.0049746516">
									<True/>
									<Node score="-0.06991451">
										<SimplePredicate field="bid_p_roll_3_skew" operator="lessThan" value="1.7258316"/>
										<Node score="-0.056504376">
											<SimplePredicate field="ask_v_roll_5_mean" operator="lessThan" value="976242.7"/>
											<Node score="-0.019654453">
												<SimplePredicate field="bid_v_roll_6_mean" operator="lessThan" value="698820.0"/>
												<Node score="0.12850817">
													<SimplePredicate field="bid_p_roll_9_skew" operator="lessThan" value="-0.41053477"/>
													<Node score="-0.059555065">
														<SimplePredicate field="ask_p_roll_2_std" operator="lessThan" value="0.17677669"/>
													</Node>
													<Node score="0.04509542">
														<SimplePredicate field="bid_v_roll_8_kurt" operator="lessThan" value="-1.9701746"/>
													</Node>
													<Node score="0.05888584">
														<SimplePredicate field="ask_v_roll_9_std" operator="lessThan" value="213706.19"/>
													</Node>
												</Node>
												<Node score="-0.043719787">
													<SimplePredicate field="bid_v_roll_8_mean" operator="lessThan" value="222142.94"/>
													<Node score="0.119319834">
														<SimplePredicate field="bid_vol_mean" operator="greaterOrEqual" value="52974.65"/>
														<Node score="0.03524654">
															<SimplePredicate field="bid_p_roll_4_skew" operator="lessThan" value="-1.4600261"/>
														</Node>
													</Node>
												</Node>
												<Node score="1.4747893E-4">
													<SimplePredicate field="ask_v_roll_9_std" operator="lessThan" value="564291.9"/>
													<Node score="-0.06529252">
														<SimplePredicate field="ask_p_roll_7_kurt" operator="lessThan" value="1.0109003"/>
													</Node>
												</Node>
												<Node score="0.08656985">
													<SimplePredicate field="ask_p_roll_4_std" operator="lessThan" value="1.3029861"/>
												</Node>
											</Node>
											<Node score="0.05049022">
												<SimplePredicate field="bid_p_roll_5_skew" operator="lessThan" value="-1.5953392"/>
											</Node>
											<Node score="0.041953">
												<SimplePredicate field="ask_p_diff_6_0" operator="greaterOrEqual" value="3.25"/>
											</Node>
											<Node score="-0.07209474">
												<SimplePredicate field="bid_vol_mean" operator="greaterOrEqual" value="182614.9"/>
											</Node>
											<Node score="0.017792847">
												<SimplePredicate field="bid_v_roll_7_std" operator="lessThan" value="953692.4"/>
											</Node>
										</Node>
										<Node score="0.047888793">
											<SimplePredicate field="bid_p_roll_9_skew" operator="lessThan" value="0.9120952"/>
											<Node score="0.12942801">
												<SimplePredicate field="spreed_vol_0" operator="greaterOrEqual" value="-1217069.5"/>
											</Node>
										</Node>
										<Node score="0.11483685">
											<SimplePredicate field="bid_p_roll_6_skew" operator="lessThan" value="0.14014523"/>
										</Node>
									</Node>
									<Node score="-0.03204058">
										<SimplePredicate field="ask_p_roll_3_skew" operator="lessThan" value="1.690831"/>
										<Node score="0.10425615">
											<SimplePredicate field="bid_v_roll_8_std" operator="lessThan" value="706874.06"/>
										</Node>
									</Node>
									<Node score="-0.072198175">
										<SimplePredicate field="ask_vol_2" operator="greaterOrEqual" value="790.5"/>
									</Node>
								</Node>
							</TreeModel>
						</Segment>
						<Segment id="3">
							<True/>
							<TreeModel functionName="regression" missingValueStrategy="none" noTrueChildStrategy="returnLastPrediction" splitCharacteristic="multiSplit" x-mathContext="float">
								<MiningSchema>
									<MiningField name="ask_vol_0"/>
									<MiningField name="ask_vol_1"/>
									<MiningField name="ask_vol_3"/>
									<MiningField name="vol_rate_4"/>
									<MiningField name="spreed_vol_6"/>
									<MiningField name="bid_v_roll_2_mean"/>
									<MiningField name="ask_p_roll_2_std"/>
									<MiningField name="bid_p_roll_2_var"/>
									<MiningField name="bid_v_roll_3_mean"/>
									<MiningField name="ask_p_roll_3_skew"/>
									<MiningField name="bid_p_roll_3_skew"/>
									<MiningField name="bid_v_roll_4_mean"/>
									<MiningField name="ask_p_roll_4_skew"/>
									<MiningField name="bid_v_roll_5_mean"/>
									<MiningField name="ask_p_roll_5_skew"/>
									<MiningField name="ask_v_roll_6_mean"/>
									<MiningField name="bid_v_roll_6_std"/>
									<MiningField name="ask_p_roll_7_skew"/>
									<MiningField name="bid_p_roll_8_skew"/>
									<MiningField name="ask_p_roll_9_skew"/>
									<MiningField name="ask_v_roll_9_skew"/>
								</MiningSchema>
								<Node score="-0.06974005">
									<True/>
									<Node score="-0.030955523">
										<SimplePredicate field="bid_p_roll_2_var" operator="greaterOrEqual" value="0.0625"/>
										<Node score="-0.059890997">
											<SimplePredicate field="bid_v_roll_3_mean" operator="lessThan" value="1037821.4"/>
											<Node score="0.007524037">
												<SimplePredicate field="ask_v_roll_6_mean" operator="lessThan" value="849060.1"/>
												<Node score="-0.0587492">
													<SimplePredicate field="ask_p_roll_9_skew" operator="lessThan" value="-0.34705526"/>
													<Node score="0.031654797">
														<SimplePredicate field="ask_p_roll_4_skew" operator="lessThan" value="0.72674465"/>
														<Node score="0.11455301">
															<SimplePredicate field="ask_p_roll_3_skew" operator="lessThan" value="1.2928824"/>
															<Node score="0.050582033">
																<SimplePredicate field="bid_v_roll_6_std" operator="lessThan" value="60740.945"/>
															</Node>
														</Node>
													</Node>
													<Node score="0.048764724">
														<SimplePredicate field="bid_v_roll_2_mean" operator="lessThan" value="205078.0"/>
													</Node>
												</Node>
												<Node score="-0.010575117">
													<SimplePredicate field="bid_v_roll_4_mean" operator="lessThan" value="284935.5"/>
													<Node score="0.06910498">
														<SimplePredicate field="spreed_vol_6" operator="greaterOrEqual" value="18766.0"/>
														<Node score="-0.061409723">
															<SimplePredicate field="ask_vol_3" operator="greaterOrEqual" value="16003.5"/>
														</Node>
													</Node>
													<Node score="0.10406716">
														<SimplePredicate field="ask_v_roll_9_skew" operator="lessThan" value="2.1315293"/>
													</Node>
												</Node>
												<Node score="0.016649993">
													<SimplePredicate field="ask_p_roll_5_skew" operator="lessThan" value="-0.95778143"/>
												</Node>
												<Node score="-0.06729639">
													<SimplePredicate field="ask_vol_0" operator="greaterOrEqual" value="9836.5"/>
												</Node>
											</Node>
											<Node score="-0.03202015">
												<SimplePredicate field="bid_p_roll_3_skew" operator="lessThan" value="1.7027726"/>
												<Node score="0.11515373">
													<SimplePredicate field="bid_p_roll_8_skew" operator="lessThan" value="1.1195459"/>
												</Node>
												<Node score="0.092483066">
													<SimplePredicate field="ask_vol_1" operator="greaterOrEqual" value="589575.0"/>
												</Node>
											</Node>
										</Node>
										<Node score="0.111395895">
											<SimplePredicate field="bid_p_roll_3_skew" operator="lessThan" value="-1.6379343"/>
										</Node>
										<Node score="0.010575003">
											<SimplePredicate field="bid_v_roll_5_mean" operator="lessThan" value="920292.4"/>
										</Node>
										<Node score="-0.06965106">
											<SimplePredicate field="vol_rate_4" operator="greaterOrEqual" value="0.0199599"/>
										</Node>
									</Node>
									<Node score="-0.03430262">
										<SimplePredicate field="ask_p_roll_2_std" operator="greaterOrEqual" value="0.17677669"/>
										<Node score="0.09317397">
											<SimplePredicate field="ask_p_roll_7_skew" operator="lessThan" value="-0.46954447"/>
										</Node>
									</Node>
								</Node>
							</TreeModel>
						</Segment>
						<Segment id="4">
							<True/>
							<TreeModel functionName="regression" missingValueStrategy="none" noTrueChildStrategy="returnLastPrediction" splitCharacteristic="multiSplit" x-mathContext="float">
								<MiningSchema>
									<MiningField name="ask_vol_0"/>
									<MiningField name="bid_vol_2"/>
									<MiningField name="bid_vol_4"/>
									<MiningField name="bid_vol_8"/>
									<MiningField name="ask_p_diff_6_0"/>
									<MiningField name="accum_spreed"/>
									<MiningField name="spreed_vol_0"/>
									<MiningField name="vol_rate_0"/>
									<MiningField name="spreed_vol_6"/>
									<MiningField name="ask_p_roll_2_var"/>
									<MiningField name="ask_p_roll_3_mean"/>
									<MiningField name="ask_p_roll_3_std"/>
									<MiningField name="bid_p_roll_3_skew"/>
									<MiningField name="bid_p_roll_4_std"/>
									<MiningField name="ask_p_roll_4_skew"/>
									<MiningField name="bid_p_roll_4_skew"/>
									<MiningField name="bid_v_roll_5_skew"/>
									<MiningField name="ask_v_roll_6_mean"/>
									<MiningField name="bid_v_roll_6_mean"/>
									<MiningField name="ask_p_roll_6_skew"/>
									<MiningField name="ask_v_roll_8_mean"/>
									<MiningField name="ask_p_roll_9_skew"/>
								</MiningSchema>
								<Node score="-0.067578256">
									<True/>
									<Node score="-0.067570284">
										<SimplePredicate field="ask_p_roll_2_var" operator="greaterOrEqual" value="0.0625"/>
										<Node score="0.046321396">
											<SimplePredicate field="ask_p_roll_6_skew" operator="lessThan" value="-0.0027244887"/>
											<Node score="-0.032013576">
												<SimplePredicate field="ask_v_roll_6_mean" operator="lessThan" value="739768.7"/>
												<Node score="-0.056001555">
													<SimplePredicate field="ask_p_roll_9_skew" operator="lessThan" value="-0.30522346"/>
													<Node score="0.10245842">
														<SimplePredicate field="bid_p_roll_4_skew" operator="lessThan" value="1.3942099"/>
														<Node score="-0.033651154">
															<SimplePredicate field="bid_v_roll_5_skew" operator="lessThan" value="0.32201344"/>
															<Node score="0.07052126">
																<SimplePredicate field="bid_p_roll_3_skew" operator="lessThan" value="-0.2928344"/>
															</Node>
														</Node>
													</Node>
												</Node>
												<Node score="-0.008315749">
													<SimplePredicate field="bid_vol_2" operator="greaterOrEqual" value="17580.5"/>
													<Node score="-0.06617394">
														<SimplePredicate field="ask_p_roll_3_mean" operator="lessThan" value="6438.667"/>
													</Node>
												</Node>
												<Node score="0.082090795">
													<SimplePredicate field="bid_vol_4" operator="greaterOrEqual" value="33500.0"/>
												</Node>
											</Node>
											<Node score="0.10429453">
												<SimplePredicate field="bid_p_roll_4_std" operator="lessThan" value="4.2597814"/>
											</Node>
										</Node>
										<Node score="0.004938754">
											<SimplePredicate field="bid_v_roll_6_mean" operator="lessThan" value="666193.5"/>
											<Node score="0.00713586">
												<SimplePredicate field="ask_v_roll_8_mean" operator="lessThan" value="1206882.9"/>
												<Node score="-0.056013104">
													<SimplePredicate field="bid_v_roll_6_mean" operator="lessThan" value="267210.4"/>
													<Node score="0.09862056">
														<SimplePredicate field="ask_p_roll_3_std" operator="lessThan" value="1.779359"/>
														<Node score="0.047714915">
															<SimplePredicate field="spreed_vol_0" operator="greaterOrEqual" value="126134.0"/>
														</Node>
													</Node>
													<Node score="0.06912918">
														<SimplePredicate field="ask_p_diff_6_0" operator="greaterOrEqual" value="3.25"/>
													</Node>
												</Node>
												<Node score="-0.029951064">
													<SimplePredicate field="spreed_vol_6" operator="greaterOrEqual" value="-126835.0"/>
													<Node score="-0.06409977">
														<SimplePredicate field="bid_vol_8" operator="greaterOrEqual" value="10947.5"/>
													</Node>
												</Node>
											</Node>
											<Node score="0.10245498">
												<SimplePredicate field="vol_rate_0" operator="greaterOrEqual" value="0.5373368"/>
											</Node>
										</Node>
										<Node score="0.03782727">
											<SimplePredicate field="ask_p_diff_6_0" operator="greaterOrEqual" value="3.25"/>
										</Node>
										<Node score="-0.008059884">
											<SimplePredicate field="bid_p_roll_3_skew" operator="lessThan" value="-1.5016433"/>
										</Node>
										<Node score="-0.02811991">
											<SimplePredicate field="ask_p_roll_4_skew" operator="lessThan" value="-1.3860292"/>
										</Node>
									</Node>
									<Node score="-0.03584399">
										<SimplePredicate field="accum_spreed" operator="greaterOrEqual" value="54.75"/>
										<Node score="0.087877855">
											<SimplePredicate field="ask_vol_0" operator="greaterOrEqual" value="831228.5"/>
										</Node>
									</Node>
								</Node>
							</TreeModel>
						</Segment>
						<Segment id="5">
							<True/>
							<TreeModel functionName="regression" missingValueStrategy="none" noTrueChildStrategy="returnLastPrediction" splitCharacteristic="multiSplit" x-mathContext="float">
								<MiningSchema>
									<MiningField name="bid_vol_8"/>
									<MiningField name="spreed_0"/>
									<MiningField name="ask_p_diff_6_0"/>
									<MiningField name="spreed_vol_2"/>
									<MiningField name="spreed_vol_3"/>
									<MiningField name="vol_rate_4"/>
									<MiningField name="vol_rate_8"/>
									<MiningField name="accum_spreed_vol"/>
									<MiningField name="ask_p_roll_2_std"/>
									<MiningField name="ask_v_roll_3_std"/>
									<MiningField name="ask_p_roll_3_skew"/>
									<MiningField name="bid_p_roll_3_skew"/>
									<MiningField name="ask_p_roll_4_std"/>
									<MiningField name="bid_v_roll_5_mean"/>
									<MiningField name="ask_v_roll_6_mean"/>
									<MiningField name="bid_v_roll_6_mean"/>
									<MiningField name="bid_p_roll_6_skew"/>
									<MiningField name="bid_p_roll_7_skew"/>
									<MiningField name="bid_v_roll_9_std"/>
								</MiningSchema>
								<Node score="-0.065673254">
									<True/>
									<Node score="-0.06561262">
										<SimplePredicate field="ask_p_roll_2_std" operator="greaterOrEqual" value="0.17677669"/>
										<Node score="-0.04339199">
											<SimplePredicate field="bid_v_roll_5_mean" operator="lessThan" value="1213470.6"/>
											<Node score="-0.0048352364">
												<SimplePredicate field="ask_v_roll_6_mean" operator="lessThan" value="849060.1"/>
												<Node score="-0.05504313">
													<SimplePredicate field="bid_p_roll_7_skew" operator="lessThan" value="-0.3535673"/>
													<Node score="0.010242145">
														<SimplePredicate field="ask_p_roll_3_skew" operator="lessThan" value="1.7168949"/>
														<Node score="0.0046099424">
															<SimplePredicate field="bid_vol_8" operator="greaterOrEqual" value="18865.0"/>
															<Node score="0.094062105">
																<SimplePredicate field="bid_v_roll_9_std" operator="lessThan" value="1059729.8"/>
															</Node>
														</Node>
													</Node>
												</Node>
												<Node score="-0.0149380285">
													<SimplePredicate field="bid_v_roll_6_mean" operator="lessThan" value="272495.3"/>
													<Node score="-0.055525314">
														<SimplePredicate field="vol_rate_4" operator="greaterOrEqual" value="36.037476"/>
													</Node>
													<Node score="0.07025187">
														<SimplePredicate field="spreed_vol_3" operator="greaterOrEqual" value="-163192.5"/>
													</Node>
												</Node>
												<Node score="0.052952975">
													<SimplePredicate field="ask_p_diff_6_0" operator="greaterOrEqual" value="3.25"/>
												</Node>
												<Node score="-0.061338075">
													<SimplePredicate field="vol_rate_8" operator="greaterOrEqual" value="0.039345596"/>
												</Node>
											</Node>
											<Node score="0.00889207">
												<SimplePredicate field="ask_p_roll_3_skew" operator="lessThan" value="1.7121279"/>
												<Node score="0.040625587">
													<SimplePredicate field="ask_p_roll_4_std" operator="lessThan" value="3.3394852"/>
													<Node score="0.09577546">
														<SimplePredicate field="spreed_vol_2" operator="greaterOrEqual" value="-1169890.5"/>
													</Node>
												</Node>
											</Node>
										</Node>
										<Node score="0.09327757">
											<SimplePredicate field="bid_p_roll_6_skew" operator="lessThan" value="-1.49792"/>
											<Node score="0.0041407323">
												<SimplePredicate field="ask_v_roll_3_std" operator="lessThan" value="252562.34"/>
											</Node>
										</Node>
										<Node score="0.030764315">
											<SimplePredicate field="accum_spreed_vol" operator="greaterOrEqual" value="4660803.0"/>
										</Node>
										<Node score="0.010971311">
											<SimplePredicate field="bid_p_roll_3_skew" operator="lessThan" value="-1.5455158"/>
										</Node>
									</Node>
									<Node score="0.067320235">
										<SimplePredicate field="spreed_0" operator="greaterOrEqual" value="0.75"/>
									</Node>
								</Node>
							</TreeModel>
						</Segment>
						<Segment id="6">
							<True/>
							<TreeModel functionName="regression" missingValueStrategy="none" noTrueChildStrategy="returnLastPrediction" splitCharacteristic="multiSplit" x-mathContext="float">
								<MiningSchema>
									<MiningField name="ask_vol_8"/>
									<MiningField name="spreed_2"/>
									<MiningField name="bid_vol_mean"/>
									<MiningField name="accum_spreed"/>
									<MiningField name="spreed_vol_3"/>
									<MiningField name="bid_v_roll_2_mean"/>
									<MiningField name="ask_p_roll_2_std"/>
									<MiningField name="bid_v_roll_2_std"/>
									<MiningField name="bid_v_roll_3_mean"/>
									<MiningField name="ask_p_roll_3_skew"/>
									<MiningField name="bid_v_roll_5_mean"/>
									<MiningField name="ask_p_roll_5_skew"/>
									<MiningField name="bid_p_roll_5_kurt"/>
									<MiningField name="ask_v_roll_6_mean"/>
									<MiningField name="bid_v_roll_6_std"/>
									<MiningField name="ask_v_roll_7_std"/>
									<MiningField name="bid_p_roll_9_skew"/>
								</MiningSchema>
								<Node score="-0.06399103">
									<True/>
									<Node score="-0.06394715">
										<SimplePredicate field="ask_p_roll_2_std" operator="greaterOrEqual" value="0.17677669"/>
										<Node score="-0.054167356">
											<SimplePredicate field="bid_v_roll_3_mean" operator="lessThan" value="1037821.4"/>
											<Node score="-0.009201984">
												<SimplePredicate field="ask_v_roll_6_mean" operator="lessThan" value="849060.1"/>
												<Node score="0.008338886">
													<SimplePredicate field="bid_p_roll_9_skew" operator="lessThan" value="-0.030991841"/>
													<Node score="-0.020097913">
														<SimplePredicate field="bid_v_roll_2_mean" operator="lessThan" value="404075.5"/>
														<Node score="0.08417906">
															<SimplePredicate field="bid_vol_mean" operator="greaterOrEqual" value="49728.25"/>
															<Node score="-0.0054750196">
																<SimplePredicate field="spreed_vol_3" operator="greaterOrEqual" value="544438.0"/>
															</Node>
														</Node>
													</Node>
													<Node score="-0.058125097">
														<SimplePredicate field="ask_v_roll_7_std" operator="lessThan" value="319236.44"/>
													</Node>
												</Node>
												<Node score="0.071447335">
													<SimplePredicate field="ask_p_roll_3_skew" operator="lessThan" value="-1.7320608"/>
												</Node>
												<Node score="-0.060672592">
													<SimplePredicate field="ask_vol_8" operator="greaterOrEqual" value="26344.0"/>
													<Node score="0.009909238">
														<SimplePredicate field="bid_v_roll_6_std" operator="lessThan" value="194031.81"/>
													</Node>
												</Node>
												<Node score="0.061875343">
													<SimplePredicate field="bid_p_roll_5_kurt" operator="lessThan" value="1.389202"/>
												</Node>
											</Node>
											<Node score="0.035457257">
												<SimplePredicate field="ask_p_roll_3_skew" operator="lessThan" value="1.7121279"/>
												<Node score="0.021237269">
													<SimplePredicate field="spreed_2" operator="greaterOrEqual" value="3.25"/>
												</Node>
												<Node score="0.08890617">
													<SimplePredicate field="bid_v_roll_2_std" operator="lessThan" value="1173262.8"/>
												</Node>
											</Node>
										</Node>
										<Node score="0.087176464">
											<SimplePredicate field="ask_p_roll_3_skew" operator="lessThan" value="-1.6378815"/>
										</Node>
										<Node score="-0.015611705">
											<SimplePredicate field="bid_v_roll_5_mean" operator="lessThan" value="980694.0"/>
										</Node>
									</Node>
									<Node score="0.07641891">
										<SimplePredicate field="accum_spreed" operator="greaterOrEqual" value="54.75"/>
										<Node score="-0.034560926">
											<SimplePredicate field="ask_p_roll_5_skew" operator="greaterOrEqual" value="-0.576544"/>
										</Node>
									</Node>
								</Node>
							</TreeModel>
						</Segment>
						<Segment id="7">
							<True/>
							<TreeModel functionName="regression" missingValueStrategy="none" noTrueChildStrategy="returnLastPrediction" splitCharacteristic="multiSplit" x-mathContext="float">
								<MiningSchema>
									<MiningField name="ask_vol_0"/>
									<MiningField name="bid_vol_4"/>
									<MiningField name="bid_vol_7"/>
									<MiningField name="bid_p_diff_5_0"/>
									<MiningField name="bid_vol_mean"/>
									<MiningField name="ask_p_roll_2_std"/>
									<MiningField name="ask_v_roll_2_std"/>
									<MiningField name="bid_p_roll_2_std"/>
									<MiningField name="bid_v_roll_3_mean"/>
									<MiningField name="ask_p_roll_3_skew"/>
									<MiningField name="bid_v_roll_3_skew"/>
									<MiningField name="ask_v_roll_4_std"/>
									<MiningField name="bid_v_roll_5_mean"/>
									<MiningField name="ask_p_roll_5_std"/>
									<MiningField name="ask_v_roll_6_mean"/>
									<MiningField name="bid_v_roll_6_mean"/>
									<MiningField name="ask_p_roll_7_skew"/>
									<MiningField name="bid_p_roll_8_kurt"/>
									<MiningField name="bid_v_roll_9_kurt"/>
								</MiningSchema>
								<Node score="-0.06250344">
									<True/>
									<Node score="0.08182271">
										<SimplePredicate field="bid_p_roll_2_std" operator="greaterOrEqual" value="0.17677669"/>
										<Node score="-0.039471965">
											<SimplePredicate field="bid_v_roll_3_mean" operator="lessThan" value="943823.4"/>
											<Node score="0.015002531">
												<SimplePredicate field="ask_v_roll_6_mean" operator="lessThan" value="849060.4"/>
												<Node score="-0.053421866">
													<SimplePredicate field="ask_p_roll_7_skew" operator="lessThan" value="-0.024315365"/>
													<Node score="0.004222416">
														<SimplePredicate field="ask_p_roll_3_skew" operator="lessThan" value="1.7305388"/>
														<Node score="0.050988566">
															<SimplePredicate field="bid_p_roll_8_kurt" operator="lessThan" value="-1.4869742"/>
															<Node score="-0.036476254">
																<SimplePredicate field="ask_p_roll_5_std" operator="lessThan" value="3.7910233"/>
															</Node>
														</Node>
														<Node score="0.08081757">
															<SimplePredicate field="bid_v_roll_9_kurt" operator="lessThan" value="5.7695513"/>
														</Node>
													</Node>
												</Node>
												<Node score="-0.06152417">
													<SimplePredicate field="bid_v_roll_6_mean" operator="lessThan" value="265667.25"/>
													<Node score="0.069606476">
														<SimplePredicate field="bid_vol_4" operator="greaterOrEqual" value="47045.0"/>
													</Node>
													<Node score="0.029675966">
														<SimplePredicate field="bid_v_roll_3_skew" operator="lessThan" value="-0.79089636"/>
													</Node>
												</Node>
												<Node score="-0.062459923">
													<SimplePredicate field="ask_vol_0" operator="greaterOrEqual" value="12575.5"/>
													<Node score="-0.018402312">
														<SimplePredicate field="bid_v_roll_3_skew" operator="lessThan" value="-1.2479146"/>
													</Node>
												</Node>
											</Node>
											<Node score="0.050654072">
												<SimplePredicate field="bid_p_diff_5_0" operator="greaterOrEqual" value="-2.75"/>
												<Node score="0.01701902">
													<SimplePredicate field="ask_p_roll_3_skew" operator="greaterOrEqual" value="1.7293603"/>
												</Node>
												<Node score="0.083505124">
													<SimplePredicate field="bid_vol_7" operator="greaterOrEqual" value="14689.5"/>
												</Node>
											</Node>
										</Node>
										<Node score="-0.06243691">
											<SimplePredicate field="ask_p_roll_3_skew" operator="greaterOrEqual" value="-1.6378815"/>
											<Node score="-0.026427522">
												<SimplePredicate field="bid_v_roll_5_mean" operator="lessThan" value="1139484.2"/>
												<Node score="0.052019525">
													<SimplePredicate field="bid_vol_mean" operator="greaterOrEqual" value="728590.56"/>
												</Node>
												<Node score="-0.05820368">
													<SimplePredicate field="bid_v_roll_6_mean" operator="lessThan" value="999174.1"/>
												</Node>
											</Node>
											<Node score="-0.02871562">
												<SimplePredicate field="bid_vol_7" operator="greaterOrEqual" value="2137986.0"/>
											</Node>
										</Node>
										<Node score="0.0046202913">
											<SimplePredicate field="ask_v_roll_2_std" operator="lessThan" value="135798.8"/>
										</Node>
									</Node>
									<Node score="0.07044279">
										<SimplePredicate field="ask_p_roll_2_std" operator="greaterOrEqual" value="0.17677669"/>
										<Node score="-0.034016248">
											<SimplePredicate field="ask_v_roll_4_std" operator="lessThan" value="483385.94"/>
										</Node>
									</Node>
								</Node>
							</TreeModel>
						</Segment>
						<Segment id="8">
							<True/>
							<TreeModel functionName="regression" missingValueStrategy="none" noTrueChildStrategy="returnLastPrediction" splitCharacteristic="multiSplit" x-mathContext="float">
								<MiningSchema>
									<MiningField name="ask_vol_2"/>
									<MiningField name="ask_p_diff_6_0"/>
									<MiningField name="bid_vol_mean"/>
									<MiningField name="spreed_vol_0"/>
									<MiningField name="spreed_vol_5"/>
									<MiningField name="accum_spreed_vol"/>
									<MiningField name="ask_v_roll_2_mean"/>
									<MiningField name="ask_p_roll_2_std"/>
									<MiningField name="ask_p_roll_3_skew"/>
									<MiningField name="bid_p_roll_3_skew"/>
									<MiningField name="bid_v_roll_4_std"/>
									<MiningField name="ask_p_roll_4_kurt"/>
									<MiningField name="ask_v_roll_5_mean"/>
									<MiningField name="ask_p_roll_5_skew"/>
									<MiningField name="ask_p_roll_6_std"/>
									<MiningField name="bid_v_roll_7_mean"/>
									<MiningField name="ask_p_roll_7_skew"/>
									<MiningField name="ask_v_roll_8_std"/>
									<MiningField name="bid_p_roll_8_skew"/>
									<MiningField name="ask_p_roll_9_skew"/>
								</MiningSchema>
								<Node score="-0.0044831703">
									<True/>
									<Node score="-0.05949806">
										<SimplePredicate field="ask_p_roll_3_skew" operator="lessThan" value="1.7293301"/>
										<Node score="-0.053513773">
											<SimplePredicate field="ask_v_roll_5_mean" operator="lessThan" value="899847.3"/>
											<Node score="0.029191358">
												<SimplePredicate field="bid_v_roll_7_mean" operator="lessThan" value="525162.44"/>
												<Node score="-0.05428892">
													<SimplePredicate field="ask_p_roll_2_std" operator="lessThan" value="0.17677669"/>
												</Node>
												<Node score="-0.055012126">
													<SimplePredicate field="bid_vol_mean" operator="greaterOrEqual" value="51723.85"/>
													<Node score="0.06966877">
														<SimplePredicate field="ask_p_roll_7_skew" operator="lessThan" value="0.4845829"/>
														<Node score="-0.017100632">
															<SimplePredicate field="ask_v_roll_8_std" operator="lessThan" value="112912.36"/>
														</Node>
													</Node>
													<Node score="0.04859896">
														<SimplePredicate field="bid_v_roll_4_std" operator="lessThan" value="245199.88"/>
													</Node>
												</Node>
												<Node score="-0.0616592">
													<SimplePredicate field="ask_p_roll_4_kurt" operator="lessThan" value="0.8824885"/>
												</Node>
											</Node>
											<Node score="0.0011656872">
												<SimplePredicate field="ask_p_roll_5_skew" operator="lessThan" value="-1.5953391"/>
												<Node score="0.07575425">
													<SimplePredicate field="accum_spreed_vol" operator="greaterOrEqual" value="1703432.5"/>
												</Node>
											</Node>
											<Node score="0.041817274">
												<SimplePredicate field="ask_p_diff_6_0" operator="greaterOrEqual" value="3.25"/>
											</Node>
											<Node score="-0.06115948">
												<SimplePredicate field="bid_vol_mean" operator="greaterOrEqual" value="186217.6"/>
												<Node score="-0.030800575">
													<SimplePredicate field="spreed_vol_5" operator="greaterOrEqual" value="1536783.5"/>
												</Node>
											</Node>
											<Node score="0.02823699">
												<SimplePredicate field="ask_p_roll_9_skew" operator="lessThan" value="0.72956395"/>
											</Node>
										</Node>
										<Node score="0.022576915">
											<SimplePredicate field="bid_p_roll_8_skew" operator="lessThan" value="0.9842418"/>
											<Node score="0.03139688">
												<SimplePredicate field="ask_p_roll_6_std" operator="lessThan" value="3.2332897"/>
												<Node score="0.0787648">
													<SimplePredicate field="spreed_vol_0" operator="greaterOrEqual" value="-1179697.5"/>
												</Node>
											</Node>
										</Node>
										<Node score="0.06865359">
											<SimplePredicate field="ask_p_roll_5_skew" operator="lessThan" value="-0.905738"/>
										</Node>
									</Node>
									<Node score="0.07028911">
										<SimplePredicate field="bid_p_roll_3_skew" operator="lessThan" value="1.196593"/>
										<Node score="-0.02985077">
											<SimplePredicate field="ask_v_roll_2_mean" operator="lessThan" value="761947.25"/>
										</Node>
									</Node>
									<Node score="-0.061188694">
										<SimplePredicate field="ask_vol_2" operator="greaterOrEqual" value="1195.5"/>
									</Node>
								</Node>
							</TreeModel>
						</Segment>
						<Segment id="9">
							<True/>
							<TreeModel functionName="regression" missingValueStrategy="none" noTrueChildStrategy="returnLastPrediction" splitCharacteristic="multiSplit" x-mathContext="float">
								<MiningSchema>
									<MiningField name="bid_vol_0"/>
									<MiningField name="spreed_0"/>
									<MiningField name="spreed_2"/>
									<MiningField name="ask_p_diff_6_0"/>
									<MiningField name="bid_vol_mean"/>
									<MiningField name="ask_p_roll_2_std"/>
									<MiningField name="bid_v_roll_2_std"/>
									<MiningField name="bid_v_roll_3_mean"/>
									<MiningField name="ask_p_roll_3_skew"/>
									<MiningField name="ask_v_roll_6_mean"/>
									<MiningField name="bid_v_roll_6_mean"/>
									<MiningField name="ask_p_roll_7_skew"/>
									<MiningField name="ask_v_roll_9_std"/>
									<MiningField name="ask_p_roll_9_kurt"/>
								</MiningSchema>
								<Node score="-0.060017705">
									<True/>
									<Node score="-0.059960097">
										<SimplePredicate field="ask_p_roll_2_std" operator="greaterOrEqual" value="0.17677669"/>
										<Node score="-0.035615385">
											<SimplePredicate field="bid_v_roll_3_mean" operator="lessThan" value="1038690.5"/>
											<Node score="-0.054755103">
												<SimplePredicate field="ask_v_roll_6_mean" operator="lessThan" value="849060.1"/>
												<Node score="-0.050597258">
													<SimplePredicate field="ask_p_roll_7_skew" operator="lessThan" value="-0.03972462"/>
													<Node score="-8.0491987E-4">
														<SimplePredicate field="ask_p_roll_3_skew" operator="lessThan" value="1.7305388"/>
														<Node score="0.03226037">
															<SimplePredicate field="ask_v_roll_9_std" operator="lessThan" value="191641.56"/>
															<Node score="-0.05216677">
																<SimplePredicate field="ask_p_roll_9_kurt" operator="lessThan" value="-1.1731837"/>
															</Node>
														</Node>
														<Node score="0.06889691">
															<SimplePredicate field="bid_vol_mean" operator="greaterOrEqual" value="44509.953"/>
														</Node>
													</Node>
												</Node>
												<Node score="0.0782056">
													<SimplePredicate field="bid_v_roll_6_mean" operator="lessThan" value="170480.84"/>
													<Node score="-0.015976511">
														<SimplePredicate field="bid_v_roll_3_mean" operator="lessThan" value="112412.17"/>
													</Node>
												</Node>
												<Node score="0.033418376">
													<SimplePredicate field="ask_p_diff_6_0" operator="greaterOrEqual" value="3.25"/>
												</Node>
												<Node score="0.004803529">
													<SimplePredicate field="ask_p_roll_3_skew" operator="lessThan" value="-1.4577705"/>
												</Node>
											</Node>
											<Node score="0.02657088">
												<SimplePredicate field="ask_p_roll_3_skew" operator="lessThan" value="1.7121279"/>
												<Node score="0.015724987">
													<SimplePredicate field="spreed_2" operator="greaterOrEqual" value="3.25"/>
												</Node>
												<Node score="0.07526329">
													<SimplePredicate field="bid_v_roll_2_std" operator="lessThan" value="1162013.8"/>
												</Node>
											</Node>
										</Node>
										<Node score="0.0740795">
											<SimplePredicate field="ask_p_roll_3_skew" operator="lessThan" value="-1.6378815"/>
										</Node>
										<Node score="-0.05130837">
											<SimplePredicate field="bid_v_roll_6_mean" operator="lessThan" value="1006980.9"/>
											<Node score="0.027995666">
												<SimplePredicate field="bid_vol_0" operator="greaterOrEqual" value="983669.0"/>
											</Node>
										</Node>
									</Node>
									<Node score="0.052718658">
										<SimplePredicate field="spreed_0" operator="greaterOrEqual" value="0.75"/>
									</Node>
								</Node>
							</TreeModel>
						</Segment>
						<Segment id="10">
							<True/>
							<TreeModel functionName="regression" missingValueStrategy="none" noTrueChildStrategy="returnLastPrediction" splitCharacteristic="multiSplit" x-mathContext="float">
								<MiningSchema>
									<MiningField name="ask_p_diff_2_0"/>
									<MiningField name="ask_p_diff_6_0"/>
									<MiningField name="bid_vol_mean"/>
									<MiningField name="vol_rate_2"/>
									<MiningField name="vol_rate_6"/>
									<MiningField name="vol_rate_7"/>
									<MiningField name="ask_v_roll_2_mean"/>
									<MiningField name="bid_p_roll_2_std"/>
									<MiningField name="ask_p_roll_3_skew"/>
									<MiningField name="bid_p_roll_3_skew"/>
									<MiningField name="ask_v_roll_4_mean"/>
									<MiningField name="bid_p_roll_4_std"/>
									<MiningField name="bid_p_roll_5_skew"/>
									<MiningField name="ask_p_roll_5_kurt"/>
									<MiningField name="ask_v_roll_6_mean"/>
									<MiningField name="bid_v_roll_6_mean"/>
									<MiningField name="bid_v_roll_6_skew"/>
									<MiningField name="ask_p_roll_7_skew"/>
									<MiningField name="ask_p_roll_8_skew"/>
									<MiningField name="ask_p_roll_8_kurt"/>
									<MiningField name="ask_p_roll_9_skew"/>
									<MiningField name="bid_p_roll_9_kurt"/>
								</MiningSchema>
								<Node score="-0.015426925">
									<True/>
									<Node score="-0.057839137">
										<SimplePredicate field="ask_p_roll_3_skew" operator="lessThan" value="1.7293301"/>
										<Node score="-0.012905613">
											<SimplePredicate field="ask_v_roll_6_mean" operator="lessThan" value="859767.9"/>
											<Node score="-0.019930499">
												<SimplePredicate field="bid_v_roll_6_mean" operator="lessThan" value="590131.44"/>
												<Node score="-0.022235068">
													<SimplePredicate field="vol_rate_6" operator="greaterOrEqual" value="0.73864895"/>
													<Node score="0.067103416">
														<SimplePredicate field="ask_p_roll_9_skew" operator="lessThan" value="-0.29437807"/>
														<Node score="-0.027689828">
															<SimplePredicate field="bid_v_roll_6_skew" operator="lessThan" value="0.5558996"/>
														</Node>
														<Node score="0.017844474">
															<SimplePredicate field="ask_p_roll_5_kurt" operator="lessThan" value="-1.7282759"/>
														</Node>
													</Node>
													<Node score="0.031972498">
														<SimplePredicate field="ask_p_diff_2_0" operator="greaterOrEqual" value="1.25"/>
													</Node>
													<Node score="-0.05916443">
														<SimplePredicate field="ask_v_roll_2_mean" operator="lessThan" value="631739.0"/>
													</Node>
												</Node>
												<Node score="0.08102122">
													<SimplePredicate field="ask_p_roll_7_skew" operator="lessThan" value="0.48531353"/>
													<Node score="-0.039072532">
														<SimplePredicate field="ask_p_roll_8_kurt" operator="lessThan" value="-1.7011774"/>
														<Node score="0.05494661">
															<SimplePredicate field="bid_p_roll_9_kurt" operator="lessThan" value="-1.3980386"/>
														</Node>
													</Node>
													<Node score="0.02772311">
														<SimplePredicate field="vol_rate_7" operator="greaterOrEqual" value="18.252527"/>
													</Node>
												</Node>
											</Node>
											<Node score="0.044149604">
												<SimplePredicate field="ask_p_diff_6_0" operator="greaterOrEqual" value="3.25"/>
											</Node>
											<Node score="0.025468772">
												<SimplePredicate field="bid_p_roll_5_skew" operator="lessThan" value="-1.6546841"/>
											</Node>
											<Node score="-0.058927126">
												<SimplePredicate field="bid_vol_mean" operator="greaterOrEqual" value="177923.34"/>
											</Node>
										</Node>
										<Node score="-0.0024093871">
											<SimplePredicate field="ask_p_roll_8_skew" operator="lessThan" value="0.9842418"/>
											<Node score="0.07195758">
												<SimplePredicate field="bid_p_roll_4_std" operator="lessThan" value="4.59695"/>
												<Node score="0.059657585">
													<SimplePredicate field="bid_p_roll_2_std" operator="lessThan" value="0.17677669"/>
													<Node score="-0.016241528">
														<SimplePredicate field="ask_v_roll_6_mean" operator="lessThan" value="1596722.0"/>
													</Node>
												</Node>
											</Node>
										</Node>
										<Node score="0.063728124">
											<SimplePredicate field="bid_p_roll_5_skew" operator="lessThan" value="-0.6300374"/>
										</Node>
									</Node>
									<Node score="0.06246006">
										<SimplePredicate field="bid_p_roll_3_skew" operator="lessThan" value="1.196593"/>
										<Node score="-0.007023722">
											<SimplePredicate field="ask_v_roll_4_mean" operator="lessThan" value="1192821.9"/>
										</Node>
									</Node>
									<Node score="-0.058981646">
										<SimplePredicate field="vol_rate_2" operator="greaterOrEqual" value="0.0046388768"/>
									</Node>
								</Node>
							</TreeModel>
						</Segment>
						<Segment id="11">
							<True/>
							<TreeModel functionName="regression" missingValueStrategy="none" noTrueChildStrategy="returnLastPrediction" splitCharacteristic="multiSplit" x-mathContext="float">
								<MiningSchema>
									<MiningField name="ask_vol_8"/>
									<MiningField name="spreed_0"/>
									<MiningField name="bid_p_diff_5_0"/>
									<MiningField name="spreed_vol_0"/>
									<MiningField name="spreed_vol_6"/>
									<MiningField name="ask_p_roll_2_std"/>
									<MiningField name="ask_p_roll_3_skew"/>
									<MiningField name="bid_v_roll_4_mean"/>
									<MiningField name="ask_v_roll_4_skew"/>
									<MiningField name="ask_p_roll_5_skew"/>
									<MiningField name="ask_p_roll_6_skew"/>
									<MiningField name="ask_v_roll_7_mean"/>
									<MiningField name="ask_p_roll_9_skew"/>
								</MiningSchema>
								<Node score="-0.05805498">
									<True/>
									<Node score="-0.058007654">
										<SimplePredicate field="ask_p_roll_2_std" operator="greaterOrEqual" value="0.17677669"/>
										<Node score="-0.051536288">
											<SimplePredicate field="bid_v_roll_4_mean" operator="lessThan" value="1190547.4"/>
											<Node score="0.04560731">
												<SimplePredicate field="ask_v_roll_7_mean" operator="lessThan" value="791339.75"/>
												<Node score="-0.04619808">
													<SimplePredicate field="ask_p_roll_9_skew" operator="lessThan" value="0.35428935"/>
													<Node score="-0.031508025">
														<SimplePredicate field="ask_p_roll_3_skew" operator="lessThan" value="1.7293618"/>
														<Node score="0.06797345">
															<SimplePredicate field="ask_p_roll_5_skew" operator="lessThan" value="-2.1501512E-5"/>
															<Node score="0.023053257">
																<SimplePredicate field="spreed_vol_6" operator="greaterOrEqual" value="19582.5"/>
															</Node>
														</Node>
														<Node score="0.041064393">
															<SimplePredicate field="ask_v_roll_4_skew" operator="lessThan" value="0.5450092"/>
														</Node>
													</Node>
												</Node>
												<Node score="-0.058273572">
													<SimplePredicate field="ask_vol_8" operator="greaterOrEqual" value="26344.0"/>
													<Node score="0.01670122">
														<SimplePredicate field="ask_p_roll_3_skew" operator="lessThan" value="-1.5453842"/>
													</Node>
												</Node>
											</Node>
											<Node score="-0.006907066">
												<SimplePredicate field="bid_p_diff_5_0" operator="greaterOrEqual" value="-2.75"/>
												<Node score="0.02561741">
													<SimplePredicate field="ask_p_roll_3_skew" operator="lessThan" value="1.6814587"/>
													<Node score="0.069163375">
														<SimplePredicate field="spreed_vol_0" operator="greaterOrEqual" value="-932054.5"/>
													</Node>
												</Node>
											</Node>
										</Node>
										<Node score="0.066729814">
											<SimplePredicate field="ask_p_roll_3_skew" operator="lessThan" value="-1.6378739"/>
										</Node>
										<Node score="0.012214787">
											<SimplePredicate field="ask_p_roll_6_skew" operator="lessThan" value="-1.49792"/>
										</Node>
									</Node>
									<Node score="0.049854707">
										<SimplePredicate field="spreed_0" operator="greaterOrEqual" value="0.75"/>
									</Node>
								</Node>
							</TreeModel>
						</Segment>
						<Segment id="12">
							<True/>
							<TreeModel functionName="regression" missingValueStrategy="none" noTrueChildStrategy="returnLastPrediction" splitCharacteristic="multiSplit" x-mathContext="float">
								<MiningSchema>
									<MiningField name="ask_vol_3"/>
									<MiningField name="bid_vol_8"/>
									<MiningField name="spreed_0"/>
									<MiningField name="bid_vol_mean"/>
									<MiningField name="vol_rate_2"/>
									<MiningField name="vol_rate_5"/>
									<MiningField name="ask_p_roll_2_std"/>
									<MiningField name="bid_p_roll_2_std"/>
									<MiningField name="bid_v_roll_3_mean"/>
									<MiningField name="bid_p_roll_3_std"/>
									<MiningField name="ask_p_roll_3_skew"/>
									<MiningField name="ask_p_roll_4_var"/>
									<MiningField name="ask_v_roll_6_mean"/>
									<MiningField name="bid_v_roll_7_mean"/>
									<MiningField name="bid_p_roll_7_std"/>
									<MiningField name="bid_p_roll_7_skew"/>
									<MiningField name="bid_v_roll_7_kurt"/>
									<MiningField name="ask_p_roll_8_skew"/>
									<MiningField name="ask_v_roll_9_kurt"/>
									<MiningField name="bid_p_roll_9_kurt"/>
								</MiningSchema>
								<Node score="-0.0064946683">
									<True/>
									<Node score="-0.05577917">
										<SimplePredicate field="ask_p_roll_3_skew" operator="lessThan" value="1.7293301"/>
										<Node score="0.07167344">
											<SimplePredicate field="ask_v_roll_6_mean" operator="lessThan" value="859767.9"/>
											<Node score="0.038441148">
												<SimplePredicate field="bid_vol_mean" operator="greaterOrEqual" value="291127.12"/>
												<Node score="-0.0572412">
													<SimplePredicate field="bid_p_roll_3_std" operator="lessThan" value="2.5412061"/>
													<Node score="0.00656986">
														<SimplePredicate field="bid_v_roll_7_mean" operator="lessThan" value="369588.3"/>
													</Node>
												</Node>
											</Node>
											<Node score="-0.005075921">
												<SimplePredicate field="bid_p_roll_7_skew" operator="lessThan" value="-0.04170715"/>
												<Node score="-0.048009884">
													<SimplePredicate field="ask_p_roll_2_std" operator="lessThan" value="0.17677669"/>
												</Node>
												<Node score="0.07255917">
													<SimplePredicate field="bid_vol_mean" operator="greaterOrEqual" value="47569.45"/>
													<Node score="0.026713395">
														<SimplePredicate field="bid_p_roll_9_kurt" operator="lessThan" value="-1.3741931"/>
													</Node>
												</Node>
											</Node>
											<Node score="0.015884345">
												<SimplePredicate field="ask_vol_3" operator="greaterOrEqual" value="37439.5"/>
												<Node score="-0.056544404">
													<SimplePredicate field="vol_rate_5" operator="greaterOrEqual" value="0.28073597"/>
													<Node score="-0.020256797">
														<SimplePredicate field="ask_v_roll_9_kurt" operator="lessThan" value="-0.5325459"/>
													</Node>
												</Node>
											</Node>
											<Node score="-0.03230942">
												<SimplePredicate field="bid_v_roll_7_kurt" operator="lessThan" value="-0.7125243"/>
											</Node>
										</Node>
										<Node score="0.011647403">
											<SimplePredicate field="ask_p_roll_8_skew" operator="lessThan" value="0.9842418"/>
											<Node score="-0.018742137">
												<SimplePredicate field="bid_p_roll_2_std" operator="lessThan" value="0.17677669"/>
												<Node score="0.05463269">
													<SimplePredicate field="bid_v_roll_3_mean" operator="lessThan" value="285407.3"/>
												</Node>
											</Node>
											<Node score="0.06703886">
												<SimplePredicate field="bid_vol_8" operator="greaterOrEqual" value="8166.0"/>
											</Node>
										</Node>
										<Node score="0.057351913">
											<SimplePredicate field="ask_p_roll_4_var" operator="lessThan" value="0.07291667"/>
										</Node>
									</Node>
									<Node score="-0.0328758">
										<SimplePredicate field="spreed_0" operator="greaterOrEqual" value="0.75"/>
										<Node score="0.05713569">
											<SimplePredicate field="bid_v_roll_3_mean" operator="lessThan" value="368108.5"/>
										</Node>
									</Node>
									<Node score="-0.05723377">
										<SimplePredicate field="vol_rate_2" operator="greaterOrEqual" value="0.0046388768"/>
										<Node score="-0.026066346">
											<SimplePredicate field="bid_p_roll_7_std" operator="greaterOrEqual" value="4.6370935"/>
										</Node>
									</Node>
								</Node>
							</TreeModel>
						</Segment>
						<Segment id="13">
							<True/>
							<TreeModel functionName="regression" missingValueStrategy="none" noTrueChildStrategy="returnLastPrediction" splitCharacteristic="multiSplit" x-mathContext="float">
								<MiningSchema>
									<MiningField name="ask_vol_8"/>
									<MiningField name="spreed_0"/>
									<MiningField name="spreed_4"/>
									<MiningField name="ask_p_diff_6_0"/>
									<MiningField name="ask_p_roll_2_std"/>
									<MiningField name="bid_v_roll_3_mean"/>
									<MiningField name="ask_v_roll_3_std"/>
									<MiningField name="bid_p_roll_3_skew"/>
									<MiningField name="bid_v_roll_4_mean"/>
									<MiningField name="bid_p_roll_4_var"/>
									<MiningField name="ask_p_roll_4_kurt"/>
									<MiningField name="ask_p_roll_5_kurt"/>
									<MiningField name="ask_v_roll_6_mean"/>
									<MiningField name="ask_p_roll_6_skew"/>
									<MiningField name="bid_v_roll_8_std"/>
									<MiningField name="ask_p_roll_8_skew"/>
									<MiningField name="ask_p_roll_9_skew"/>
								</MiningSchema>
								<Node score="-0.056496408">
									<True/>
									<Node score="-0.05616727">
										<SimplePredicate field="ask_p_roll_2_std" operator="greaterOrEqual" value="0.17677669"/>
										<Node score="0.043402135">
											<SimplePredicate field="bid_v_roll_4_mean" operator="lessThan" value="1176873.2"/>
											<Node score="-0.052712064">
												<SimplePredicate field="ask_v_roll_6_mean" operator="lessThan" value="739394.4"/>
												<Node score="0.06749583">
													<SimplePredicate field="ask_p_roll_9_skew" operator="lessThan" value="-0.3955127"/>
													<Node score="-0.022049872">
														<SimplePredicate field="bid_p_roll_4_var" operator="lessThan" value="0.8645833"/>
													</Node>
													<Node score="0.0042744214">
														<SimplePredicate field="ask_p_roll_5_kurt" operator="lessThan" value="-2.0564218"/>
													</Node>
												</Node>
												<Node score="0.07653366">
													<SimplePredicate field="ask_p_diff_6_0" operator="greaterOrEqual" value="3.25"/>
													<Node score="-0.023865962">
														<SimplePredicate field="ask_p_roll_8_skew" operator="lessThan" value="-0.1353394"/>
													</Node>
													<Node score="0.021082126">
														<SimplePredicate field="ask_vol_8" operator="greaterOrEqual" value="50928.0"/>
													</Node>
												</Node>
												<Node score="0.041624296">
													<SimplePredicate field="bid_v_roll_8_std" operator="lessThan" value="212301.56"/>
												</Node>
												<Node score="-0.00404428">
													<SimplePredicate field="ask_p_roll_4_kurt" operator="lessThan" value="-4.4463816"/>
												</Node>
											</Node>
											<Node score="-0.024637898">
												<SimplePredicate field="spreed_4" operator="greaterOrEqual" value="5.75"/>
											</Node>
											<Node score="0.03000092">
												<SimplePredicate field="bid_p_roll_3_skew" operator="lessThan" value="1.7121198"/>
												<Node score="0.06525513">
													<SimplePredicate field="bid_v_roll_3_mean" operator="lessThan" value="1028749.6"/>
												</Node>
											</Node>
											<Node score="-0.025220042">
												<SimplePredicate field="ask_v_roll_6_mean" operator="lessThan" value="1765851.2"/>
											</Node>
										</Node>
										<Node score="0.06288313">
											<SimplePredicate field="ask_p_roll_6_skew" operator="lessThan" value="-1.49792"/>
											<Node score="0.014122814">
												<SimplePredicate field="ask_v_roll_3_std" operator="lessThan" value="358157.62"/>
											</Node>
										</Node>
										<Node score="-0.018572891">
											<SimplePredicate field="bid_p_roll_3_skew" operator="lessThan" value="-1.2935858"/>
										</Node>
									</Node>
									<Node score="0.04468299">
										<SimplePredicate field="spreed_0" operator="greaterOrEqual" value="0.75"/>
									</Node>
								</Node>
							</TreeModel>
						</Segment>
						<Segment id="14">
							<True/>
							<TreeModel functionName="regression" missingValueStrategy="none" noTrueChildStrategy="returnLastPrediction" splitCharacteristic="multiSplit" x-mathContext="float">
								<MiningSchema>
									<MiningField name="bid_vol_7"/>
									<MiningField name="spreed_0"/>
									<MiningField name="spreed_5"/>
									<MiningField name="bid_vol_mean"/>
									<MiningField name="spreed_vol_7"/>
									<MiningField name="ask_p_roll_2_std"/>
									<MiningField name="bid_p_roll_2_std"/>
									<MiningField name="bid_p_roll_3_std"/>
									<MiningField name="ask_p_roll_3_skew"/>
									<MiningField name="bid_v_roll_4_mean"/>
									<MiningField name="ask_v_roll_6_mean"/>
									<MiningField name="bid_v_roll_6_std"/>
									<MiningField name="bid_p_roll_7_skew"/>
									<MiningField name="ask_p_roll_9_skew"/>
								</MiningSchema>
								<Node score="-0.055839684">
									<True/>
									<Node score="-0.05575452">
										<SimplePredicate field="ask_p_roll_2_std" operator="greaterOrEqual" value="0.17677669"/>
										<Node score="-0.03446039">
											<SimplePredicate field="bid_v_roll_4_mean" operator="lessThan" value="1151768.1"/>
											<Node score="-0.055698086">
												<SimplePredicate field="ask_v_roll_6_mean" operator="lessThan" value="742132.6"/>
												<Node score="0.065338925">
													<SimplePredicate field="bid_p_roll_7_skew" operator="lessThan" value="0.49922413"/>
													<Node score="-0.038710505">
														<SimplePredicate field="bid_vol_mean" operator="greaterOrEqual" value="184674.69"/>
														<Node score="-0.055451125">
															<SimplePredicate field="bid_p_roll_3_std" operator="lessThan" value="0.81489396"/>
														</Node>
														<Node score="0.042700715">
															<SimplePredicate field="bid_vol_7" operator="greaterOrEqual" value="56727.5"/>
														</Node>
													</Node>
													<Node score="0.04002457">
														<SimplePredicate field="spreed_0" operator="greaterOrEqual" value="0.75"/>
														<Node score="-0.04386177">
															<SimplePredicate field="spreed_vol_7" operator="greaterOrEqual" value="52210.0"/>
														</Node>
													</Node>
													<Node score="0.021780357">
														<SimplePredicate field="bid_v_roll_6_std" operator="lessThan" value="141216.34"/>
													</Node>
												</Node>
												<Node score="0.0062739337">
													<SimplePredicate field="bid_v_roll_4_mean" operator="lessThan" value="190372.62"/>
												</Node>
											</Node>
											<Node score="0.019695217">
												<SimplePredicate field="ask_p_roll_3_skew" operator="lessThan" value="1.6975288"/>
												<Node score="-0.007818748">
													<SimplePredicate field="spreed_5" operator="greaterOrEqual" value="6.75"/>
												</Node>
												<Node score="0.063370146">
													<SimplePredicate field="bid_p_roll_2_std" operator="lessThan" value="3.0052037"/>
												</Node>
											</Node>
										</Node>
										<Node score="0.05653408">
											<SimplePredicate field="ask_p_roll_3_skew" operator="lessThan" value="-1.6378739"/>
										</Node>
										<Node score="0.015351191">
											<SimplePredicate field="ask_p_roll_9_skew" operator="lessThan" value="-1.7778411"/>
										</Node>
									</Node>
									<Node score="0.039946344">
										<SimplePredicate field="spreed_0" operator="greaterOrEqual" value="0.75"/>
									</Node>
								</Node>
							</TreeModel>
						</Segment>
						<Segment id="15">
							<True/>
							<TreeModel functionName="regression" missingValueStrategy="none" noTrueChildStrategy="returnLastPrediction" splitCharacteristic="multiSplit" x-mathContext="float">
								<MiningSchema>
									<MiningField name="ask_vol_2"/>
									<MiningField name="spreed_3"/>
									<MiningField name="spreed_vol_0"/>
									<MiningField name="spreed_vol_1"/>
									<MiningField name="spreed_vol_6"/>
									<MiningField name="ask_p_roll_2_std"/>
									<MiningField name="bid_p_roll_2_std"/>
									<MiningField name="ask_p_roll_3_skew"/>
									<MiningField name="ask_v_roll_4_mean"/>
									<MiningField name="ask_v_roll_5_mean"/>
									<MiningField name="ask_p_roll_5_std"/>
									<MiningField name="ask_p_roll_5_skew"/>
									<MiningField name="bid_p_roll_5_kurt"/>
									<MiningField name="bid_p_roll_6_std"/>
									<MiningField name="bid_v_roll_8_mean"/>
									<MiningField name="ask_p_roll_8_skew"/>
									<MiningField name="ask_v_roll_9_skew"/>
									<MiningField name="bid_p_roll_9_skew"/>
								</MiningSchema>
								<Node score="-0.055254836">
									<True/>
									<Node score="-0.05319689">
										<SimplePredicate field="ask_p_roll_3_skew" operator="lessThan" value="1.7293301"/>
										<Node score="-0.054856967">
											<SimplePredicate field="ask_v_roll_5_mean" operator="lessThan" value="843560.2"/>
											<Node score="-0.023343874">
												<SimplePredicate field="bid_v_roll_8_mean" operator="lessThan" value="1013063.25"/>
												<Node score="-0.050439715">
													<SimplePredicate field="ask_p_roll_2_std" operator="lessThan" value="0.17677669"/>
												</Node>
												<Node score="0.019232085">
													<SimplePredicate field="bid_p_roll_9_skew" operator="lessThan" value="-0.48743525"/>
													<Node score="0.030009558">
														<SimplePredicate field="ask_v_roll_9_skew" operator="lessThan" value="1.6339068"/>
														<Node score="0.06606712">
															<SimplePredicate field="bid_p_roll_5_kurt" operator="lessThan" value="3.2806063"/>
														</Node>
													</Node>
												</Node>
												<Node score="0.003251496">
													<SimplePredicate field="spreed_vol_6" operator="greaterOrEqual" value="18436.0"/>
													<Node score="-0.05035336">
														<SimplePredicate field="spreed_vol_1" operator="greaterOrEqual" value="5375.0"/>
													</Node>
												</Node>
												<Node score="0.04682172">
													<SimplePredicate field="ask_vol_2" operator="greaterOrEqual" value="20567.5"/>
												</Node>
											</Node>
											<Node score="0.045930523">
												<SimplePredicate field="ask_p_roll_5_skew" operator="lessThan" value="-1.7381113"/>
											</Node>
										</Node>
										<Node score="-0.003557271">
											<SimplePredicate field="ask_p_roll_8_skew" operator="lessThan" value="0.951795"/>
											<Node score="0.016149815">
												<SimplePredicate field="bid_p_roll_6_std" operator="lessThan" value="3.6684413"/>
												<Node score="0.061963804">
													<SimplePredicate field="spreed_vol_0" operator="greaterOrEqual" value="-1179697.5"/>
													<Node score="0.030636637">
														<SimplePredicate field="bid_p_roll_2_std" operator="lessThan" value="0.17677669"/>
													</Node>
												</Node>
											</Node>
										</Node>
										<Node score="0.05127967">
											<SimplePredicate field="ask_p_roll_5_skew" operator="lessThan" value="-0.6631855"/>
										</Node>
									</Node>
									<Node score="0.051327277">
										<SimplePredicate field="spreed_3" operator="greaterOrEqual" value="3.75"/>
										<Node score="-0.036728572">
											<SimplePredicate field="ask_v_roll_4_mean" operator="lessThan" value="1297866.4"/>
										</Node>
									</Node>
									<Node score="-0.007037314">
										<SimplePredicate field="ask_p_roll_5_std" operator="greaterOrEqual" value="3.405806"/>
									</Node>
								</Node>
							</TreeModel>
						</Segment>
						<Segment id="16">
							<True/>
